-1.539797266087785221e+00,3.045975376195516615e-01,-2.673115188962224553e-01,-5.779870928666406421e-02,-9.782493757967204440e-01,1.243478111145176618e-01,-7.796690378897316309e-01,2.038620607483095704e+00,-1.221486957441918486e+00,-5.381762744340822247e-01,-1.546201560348002380e+00,-4.068158370203306951e-01,1.116865197620708683e+00,3.086358348976516730e-01,8.258085290229512099e-01,-2.075631306460790970e+00,1.122804222384843564e+00,-1.742884835380182240e+00,-2.223072866194203689e-01,-8.700768941516567878e-01,-4.629445090935515039e-01,3.198735511337024162e-01,-1.723810817513780624e-01,8.697254178520584522e-02,1.126509958581149773e+00,1.056514203504261562e-01,3.477458650089105818e-01,5.293222863838511344e-02,-3.476997947608956308e-01,-6.685979024078241018e-02,9.581376928330105347e-01,2.531978754016390720e+00,4.287716637759827476e-01,-3.795245637899539171e-01,-7.998026563722671067e-02,7.450367678761152801e-01,3.731054844030556317e-01,7.030753518793374512e-01,1.856122832016041113e-01,-2.127498626102769241e-01,-5.057484803568252918e-01,4.528845212203304604e-01,-2.781061246000809950e-01,3.311618709299355978e-01,1.504499885725496533e+00,3.045904268427790940e-01,3.544688774353551008e-01,-7.425097588874921550e-01,5.854080864945170326e-01,-9.832161234527403426e-01,-8.565620397319421153e-01,-8.922986407160147238e-01,-6.014653463890045071e-01,-1.841447253784098403e-01,1.236432769680447352e+00,6.389287693908982657e-01,-1.756976485549164080e+00,-7.162839718790457721e-02,1.063978907380597416e+00,-7.731138852985850463e-01,9.928282124643771078e-02,1.212113578657023349e-01,-1.176750615178850490e+00,-1.764722844741297147e-01,1.259872249078034745e+00,1.716907905691458014e+00,1.191325672478023900e+00,-2.068823122088510880e-01,6.497752289731599795e-01,7.277971546262064217e-01,1.102647189964563790e+00,6.692457228182926432e-01,1.204601582080135680e+00,8.226183799193683699e-01,-4.352863272199691824e-01,-1.649931630878659072e-01,-5.612097347255913249e-01,1.089407671304663205e+00,1.087690372336757617e-02,1.361038609098468855e-01,1.267392090339221733e+00,2.475455956344491393e-01,6.405613046950945355e-01,2.029496472861407330e+00,-9.457456218100918077e-01,-1.408678400503196870e-01,-1.117758096219091390e+00,-9.778710725277683924e-01,8.296277606432393703e-02,5.477601487603035446e-01,-9.395498973854872204e-01,-1.236804538183404301e+00,8.110201373861716245e-01,1.696534292053440307e+00,-1.100218196884539257e+00,1.464492200137814670e+00,-4.461678617266324753e-01,8.040664910571007629e-02,-1.151442545016499119e+00,4.490100188353032262e-01,-1.294456207729888675e+00,1.179891767422953097e-01,5.725893124825011116e-01,3.450289744904748712e-01,4.195540094320665547e-01,-1.709713527195744875e+00,9.176056876926054207e-01,2.221681665875370637e+00,7.494677259182309648e-01,-9.108867295359209804e-01,3.682254075063694509e-01,6.798866203954118115e-02,2.021835318458705011e+00,-1.810392588673600811e-01,-5.548819947182076495e-02,1.050707461203561843e+00,-9.954698777441101099e-01,1.605005232391287229e-01,-1.735356230184452508e+00,-1.006817849726588943e+00,-7.386856184516443768e-01,-7.087497770062834990e-01,4.854130432085842495e-01,-5.534305565956688655e-01,-1.642988034026824362e+00,6.184383168111584617e-01,1.585275621385711320e+00,-5.312507191736448586e-01,-5.173704350973319377e-01,-7.236719200527427232e-01,-3.135743907863225988e-01,1.983970770848773491e+00,1.774813168731112833e+00,-5.982074290093277735e-01,-1.553742747827915105e+00,1.567619786434646612e+00,5.718026416712342908e-01,9.204920708129883389e-01,-1.210626124173975748e+00,-1.099694051754478430e+00,-2.741669419678649522e-01,2.604425552450663761e-01,2.954507688725467318e+00,3.175485731786658640e-03,1.181353409743923361e-01,-1.866441525028258219e+00,-8.928127738053064366e-01,-1.894149086528450210e-01,7.705893905888300255e-01,8.382770385492176457e-01,-4.706034594950298522e-01,3.716304387848925420e-03,1.975446599487707289e+00,8.984099379762655602e-01,3.420836345734573070e-01,2.041745453769741037e+00,-1.221335235331092672e+00,-2.880734083402821111e-01,4.330698641850769803e-01,5.151242322256326389e-01,-4.186507128742485428e-01,1.856608064282728177e-01,4.702977436419730206e-01,-1.449127610222597173e+00,-1.025002097662714107e+00,-5.368296868551578754e-02,-1.620434632576824019e-01,7.365312447891683156e-01,-1.206663905781620194e+00,-9.969578577991509150e-01,-1.047891979917562111e+00,7.731044498272566790e-01,1.013324791724179885e+00,9.756559685758924294e-01,1.589413619467107061e-02,-2.310234083089048873e-01,-8.199703801618348775e-01,1.225241857589411731e+00,-1.102499894976677330e+00,8.487843757820759949e-01,5.278787585962304574e-01,-9.743237931862048784e-01,1.110443440998881925e+00,5.041882703843431068e-01,4.332584063986582579e-01,6.966954183367102260e-01,2.053209025183543091e+00,1.471811350858187595e-01,-6.942707677959288892e-01,-1.115874443754435452e+00,4.455617930543586541e-02,-4.671645193106140764e-02,-8.496964015303066775e-01,-9.546930831215846291e-01,-6.349345781574343706e-01,-7.175846737284038435e-01,1.388069654947003739e+00,-2.631864114112409392e-01,2.683841962063375219e-01,7.214041208141542816e-01,-1.277221200090356446e+00,-1.534128471514354386e+00,7.811797823384756256e-01,-4.882703461834849157e-01,1.654186558555872821e+00,-7.086247547369127764e-01,-6.798866785295224480e-01,-9.348462612631822100e-02,3.888064966898354125e-01,2.060744113262974186e-01,-3.377102414994420099e-01,7.489770257911207985e-01,-1.060330914742880104e+00,6.213692636371843242e-02,-1.347307804818331123e+00,1.092776716306993912e+00,1.775881432307401919e+00,-7.223350766957105096e-01,3.367218923140091746e-01,-3.822124087397620884e-01,-9.254321680671011574e-01,-1.163817397883779137e+00,9.322524927266896411e-01,7.667260733208660639e-01,-3.516046953001524256e-01,-1.416327892381547215e+00,-8.786688925394416927e-01,5.992319141556657902e-01,-1.882071439808184810e+00,4.892782370303731532e-01,1.984088949477757699e-02,-1.510819134661948393e+00,3.994409857199828773e-01,9.034477996327193450e-02,-1.374855990700183661e-01,2.105724391470614187e-01,1.157891045778226990e+00,-3.303175663991799182e-01,-9.072115717945142266e-02,-4.723862244410972910e-01,1.695788920362695240e+00,1.681944638318560448e-01,-2.437988396541161396e-01,2.590003508387955233e-01,-1.347399792773182003e+00,-6.018327219851847820e-01,2.062454386199384093e-01,-5.014240029819119204e-01,-4.380012337356549712e-01,-3.812694901693055027e-01,-4.665045203933935181e-01,2.393212641710024347e+00,4.016524412836897651e-01,-1.309631501616884131e-01,-6.612852173467723693e-01,-1.171914110895290878e-01,1.558323287391561118e+00,-9.692183644679103205e-01,-6.063384800431741439e-01,-1.173126590672898040e+00,-1.372654098814940493e+00,-5.749141218099533823e-01,-1.608176096402973876e+00,2.396217860563661928e-01,-4.440610991390697704e-01,6.547667930229139621e-01,1.200398762563808175e+00,-6.692534153490524718e-01,-4.818342678080546060e-01,-2.608776244049495485e-01,1.184132631342092318e-01,-8.867279867560416695e-02,-4.510478997890371433e-01,8.654170949630795029e-01,3.362723967268430592e-01,6.345274853333282561e-02,2.736364423246787081e-01,-1.280082449520687060e+00,4.977512941046211004e-01,-2.760098332424555378e-01,-1.231289817420271548e+00,7.853164996080206350e-01,-1.233513412172881907e+00,-6.011585074196449385e-01,1.951033344445267659e+00,-3.422752456515679859e-02,2.311480869117053416e+00,-1.481749029997977640e+00,-1.393411354880272235e+00,-5.666889639152834501e-01,-6.184906412762165573e-01,-5.127588244686273056e-01,-1.489144079415573481e-02,5.929335903434796995e-01,1.065990685494949020e+00,1.701579096135620306e+00,-7.817192094296280258e-01,1.579371428855086412e+00,6.038124646270295326e-01,-3.059014495856485216e-01,1.607359581295131346e+00,-4.356248701484090602e-01,1.394037775600581508e+00,-1.088517843375139682e-01,-2.747931770722333300e-01,-7.882331387181253923e-01,6.020245859590667159e-02,1.223121012044974476e+00,-1.670226244656671577e+00,-1.153369396541202185e+00,3.930461487288821609e-01,7.774626562014086417e-01,-2.129223103340746603e-01,-6.700777975378982010e-01,-1.775464126183553315e+00,-9.791561239302829511e-01,-3.197755900669608242e-01,-1.184559213303575831e+00,-5.798068333751713599e-01,-1.659028743063923131e-02,-9.188468084262523261e-01,1.326310621174657145e+00,1.979511598425128249e-01,1.598471519374516370e-01,2.582902251949285022e-01,1.327472791289718401e+00,-4.682450067133356320e-02,2.187381170834095112e-01,1.050093857672437903e+00,-2.332654702358226695e-01,8.963535433048489542e-01,-5.447519017577697742e-01,1.636446238382150753e+00,-2.338884899027005859e-01,7.366206223576181600e-01,1.285441183168894996e+00,-9.423071565459739674e-02,-8.800758242120455543e-01,-1.074111930392384950e+00,-1.819917881814096527e-01,1.216098968081517073e+00,-4.589875852056018446e-01,1.148147054660675126e+00,4.389899453627719161e-01,-1.607080620660920500e+00,-2.003152895491376317e-01,-1.107993290498082706e+00,-2.330392267464623579e+00,-2.110846436679986726e-01,-8.334775556472314717e-01,7.438191197645370456e-02,7.537929450114015939e-01,-1.454667086118138108e+00,-3.548616915332014177e+00,-1.158059042419985696e+00,-1.620899776620705612e+00,-1.723580492588664859e+00,-1.767551332650813878e+00,3.725264800567432699e-01,-1.547050476129374630e+00,-5.509102503426405173e-01,1.371543882037903783e+00,1.558684615680714369e+00,1.081436234836566479e+00,9.321738947290122423e-01,-6.419193821820782242e-01,-1.201753093365154346e+00,7.209579195018543940e-01,-3.289058689015988413e-01,-6.579029675701114632e-01,-1.274302362166635172e+00,-9.658800285478803538e-01,6.424531895635665624e-01,-4.902001940094605770e-01,-1.833656497628727289e-02,-1.250565536087027363e+00,-1.281532382874517872e-01,8.594102004863249933e-01,-1.258400522951000022e+00,3.338562314372204853e-01,1.398659506535099573e-01,-1.082686467287745868e+00,-6.535259527740636121e-02,-2.890573006109946677e-02,-1.173629256986784997e+00,6.011540919959187379e-01,-1.131561841733894069e-01,-5.848145832062435767e-01,1.596140923024632619e+00,3.305104110239016624e-01,1.160577111140012052e+00,-1.437813336543847686e+00,-3.600357550176834787e-01,2.497010185178056840e-01,-1.059924529444339569e+00,1.042332777323039084e+00,1.218285419032958256e-01,-7.440044683121908031e-01,-1.159350803566817190e+00,3.344995091502995788e-01,-1.403203941214566708e+00,-5.537989237696193667e-01,8.934843382136086198e-01,-9.864054300939778530e-01,2.137006609509586874e-01,-6.030930606284465867e-01,2.816773690811879227e+00,-2.902500119682469570e-01,-5.243306182589631444e-03,-8.231938789263697487e-01,-4.354996206373558110e-01,2.073486942962562973e-01,-7.578629417506445032e-01,-5.381576716388215553e-01,7.188731767729711342e-01,-1.346025288667096476e-01,-3.168121319953848047e+00,2.027573966085484791e+00,-1.711742467121372124e+00,2.401684625946543528e-01,-3.742653047406375721e-01,-3.507729268741430206e-01,5.831907080733916837e-01,1.711530321430780599e-01,-8.572452109983486057e-02,5.685572116125541253e-01,-1.091543439227385504e+00,8.118779886109488142e-02,-6.295259971337646698e-01,1.154015941756750818e+00,2.239306610635522291e-02,1.209299737809480302e+00,8.054821243615698512e-01,-1.943490457511395597e+00,-1.388878778854344853e+00,4.734278217910137254e-01,-1.719746100617823403e+00,-5.436242653974137085e-01,-1.683959399630117482e-01,-1.128277339743469776e+00,2.312035782138238960e-01,1.246318528439259443e-01,-5.902392835433853957e-01,1.574806704892048881e-01,-1.691636864339052596e-02,-1.657172541114509401e-01,1.872386059772753464e-01,9.296993350831906922e-01,-5.736589330591069791e-01,-1.632382328295249652e+00,-2.969175242295896688e-01,-2.288897953148786302e-01,3.601363840168039232e-01,-1.043651478981604042e+00,2.289371551883201406e+00,2.766607346811307822e-01,1.913214178707816737e+00,-1.870751994300552667e-01,-8.961490570952990176e-01,2.440559222444765308e-01,-7.745681906293212515e-01,1.259279334877245971e+00,7.520616039181620138e-01,-1.312725421882441790e+00,-2.994744956249965062e-01,-1.622933184253228245e-01,5.385305202454024887e-01,8.226989503252516434e-01,-4.995499979002854807e-01,5.955471083826745504e-01,-5.623825168225662363e-01,-1.318600070270281865e-01,1.071713324170309622e+00,-1.843293593943399200e-01,7.232588120841880741e-01,6.299261748348314316e-02,-1.471615476548763457e+00,1.741032307341581653e+00,2.043250528473435690e+00,-4.390682328392259137e-01,1.171215075312707077e+00,5.964735471683079576e-02,-7.279200657662918128e-02,4.798555165190050986e-01,-7.154570173927584653e-01,3.047701752137115926e-03,-4.084490576868997636e-01,-8.461909027880709644e-01,-1.250257844104049332e-01,-1.842582055681504016e+00,-2.209628890860908079e+00,-9.306473653350242348e-01,1.650695475099648035e-01,-1.459559968663625695e-01,6.695164352837787991e-01,4.494068579386385487e-01,8.725435908970372023e-02,-2.244178384324254871e+00,1.825194284783797860e+00,1.485062254162734074e+00,-1.060897884458904761e+00,-9.355285881666247638e-01,-7.825676532904608518e-01,-5.115914657628364282e-01,3.415478161334108420e-01,2.533242294923002125e-02,7.470135317044278578e-01,-8.115744581414698899e-01,-8.161592512464800608e-02,4.548779394516330732e-01,-4.823289993855179453e-02,1.314428128276071028e+00,4.772745905141305145e-01,9.565013703848017634e-01,-5.875951297708446180e-02,-7.328940534884624824e-01,8.343415682426001956e-01,-2.032517211581088279e-01,-6.039580229007823764e-01,4.238999593256674303e-01,1.035302235342553528e-02,5.699079914501801181e-01,-1.259432567901950795e-01,-8.161823530651117764e-01,1.324253783441506016e+00,2.387685494415702769e-01,1.221842410167288673e+00,-3.880310962676031816e-01,4.481464283132061133e-01,1.031844666976194480e+00,-1.782627716961853598e-02,3.890297261940818263e-01,1.983103521358956997e-02,3.773584122074911118e-01,7.008583793438827314e-02,-6.701904862324880030e-01,-8.446275041728260602e-01,2.387599302518699229e+00,4.636555254843232610e-01,1.084808374469672376e+00,1.099309713547646394e+00,-2.447187144616656124e-02,1.273273001138310656e+00,6.436919641396416925e-01,1.513288691598791980e+00,-7.380570452657024827e-01,1.467451529461648585e+00,-1.392803619896130218e+00,-1.994957000435090555e-01,-8.560356618578329746e-01,4.897406557664548687e-01,5.341875883751011633e-01,4.619102208121738662e-01,6.520351790955380977e-01,1.026812972425824144e+00,-7.045097477091226690e-01,2.442287384659876659e-01,-9.548271407751588447e-01,-1.494223418980482165e+00,-5.357005106237929665e-02,5.333593678120639447e-01,4.694179957335178344e-01,-1.241890058646505812e+00,-2.002470673198878184e-02,1.593172140006336779e+00,5.987266264862530774e-01,-1.123205170483752457e+00,-2.010969555662854569e-01,1.830334505383511834e+00,-7.194952002031055338e-01,1.592367756761101427e+00,6.295004508392384457e-01,-1.819262167801356245e-01,4.560788980711414364e-01,8.220607773409438490e-01,8.827279778065539873e-01,1.735424075840115155e+00,1.364831033812622385e+00,2.602107250301133323e-01,-2.507090635119697541e-01,-2.519557487296424370e-01,5.106079164162338584e-03,1.208277591203691381e+00,-5.018073124924032902e-01,6.623206275758115602e-01,1.545714818379198274e-01,-1.904612751846267660e+00,1.039863121799930346e+00,-1.593824775283083195e+00,6.734337807384177532e-01,-2.309407421276151506e+00,-4.794268120291457491e-02,1.140132522505863832e+00,1.019338337464994915e+00,6.737716123213937092e-01,6.390438632504927829e-01,4.777705153273748701e-02,2.758565139124953713e+00,-7.366062346197788102e-01,-2.618997807411266310e-01,-1.156820800130516247e+00,-2.470989532245440878e-01,-1.544238123425250020e+00,5.033259616851039342e-02,-9.858015169522857946e-01,-1.405107589798171741e+00,8.744301943056947968e-01,-5.759368580286231554e-01,-2.077143321163439083e-01,-1.722999512868413907e+00,-1.047718227440457062e+00,1.478811906908875096e-01,-2.474431154430658530e-01,7.776894741436830572e-01,-5.675892307551867050e-02,-7.180009050958932049e-01,1.319174335734708992e+00,-9.712343216092584886e-01,-1.033308445945787302e+00,-6.239422456028608649e-02,4.150166988153857622e-02,-2.023773842548356322e-02,9.529195934968791304e-02,-1.769932896457007829e-06,-8.437152390659348189e-01,9.670480828552839858e-01,7.593322830652562416e-01,4.642769907519522787e-01,8.605160846976180888e-01,-1.947564676994225641e-01,2.861707150405211397e+00,1.339494140278449263e+00,1.017236022081605906e+00,9.504934779854019855e-02,6.310593016316539128e-01,8.261749186973151027e-02,4.511913394457005011e-01,1.163753920125860514e-01,-5.219727972262858673e-01,-9.291308934575932543e-01,-7.946216027737256216e-01,6.546792861198539315e-01,-2.454565193935411838e+00,1.664055366139832515e+00,3.361694358439259456e-01,9.616759900750325440e-02,-7.239843800620990866e-01,1.585712444811514965e+00,4.967958999304070700e-01,9.704277494075109756e-01,1.065656926208856436e+00,3.901805138093299985e-01,-7.886762564340725756e-01,6.572649033295574483e-01,-1.126531653089721807e+00,-1.781232612225446821e-01,-7.820614114307213871e-01,-2.411337619124630238e-01,-3.983340806444177207e-01,-1.856723720184059179e+00,6.186143964186302524e-01,-1.006435193032762854e+00,1.335703114192776209e+00,-1.225291738458684776e+00,9.273521651963679835e-01,5.464645991907686184e-01,2.074954741174093176e+00,-5.838802546759722656e-01,-1.425070133521707749e+00,6.130338636884937742e-01,1.204231820977887946e+00,-2.167133901675219132e+00,-1.665004390483238339e+00,-4.764042009672007638e-01,-1.428259419746143122e+00,-4.580483450383135424e-01,1.399158066752874685e-01,-4.723334165453475508e-01,-6.976574231709226082e-01,-8.564048861195818763e-01,1.001989511947686040e+00,-7.756405901159336702e-01,7.054271564856465782e-01,1.095626924432425486e+00,5.949013603682821311e-02,3.869809736786174875e-02,-1.148673349577528313e+00,3.172235230698753905e-01,-1.552219010358154572e+00,2.042020167627018878e+00,1.492841937751776815e-01,-3.826214082643569075e-02,-1.249480091196027987e+00,4.677710492573884937e-01,-7.668948861408003692e-01,1.136620482819732159e+00,-1.114802242746834260e+00,2.589547323227853193e-01,-1.582054223974766610e-02,-1.060334509275797421e+00,-2.658910594406774242e-01,-2.596919165861187873e-01,6.526158324678593692e-01,-3.675370611982902713e-01,-9.411318804188102405e-01,-3.015815268510346758e-01,1.048866589628443702e+00,-2.145438545300993316e-01,2.807461006490565847e-01,-1.383334281617771833e+00,2.194867383645412173e-01,-9.910902380911521536e-01,-8.698180732127994697e-01,-3.735139104162175649e-01,-2.143578365627443194e+00,-1.256794835709359237e+00,-9.874663508953299695e-01,1.361369290961554901e-01,8.544647465222113270e-02,-7.539036103217142681e-01,4.593504183405000552e-01,-6.528012748153902978e-01,-1.970610642536884394e-01,-3.927212669499707265e-01,1.228092561813689976e+00,4.532151258555223161e-01,2.636490468001509435e-01,-9.423142454405290802e-02,-1.626507157052106689e-01,7.402908886899912944e-02,-9.392060379230661171e-01,-8.768271108730844032e-01,8.203760773639731108e-01,1.236591145560319349e+00,-2.459927313978381713e-01,-4.051730530036959377e-01,2.526974515058360571e-01,2.716157939270438804e-01,1.947328997709172116e+00,-1.226650306046061401e+00,-1.558778403939759638e+00,8.237782032535375665e-01,1.644420762338771436e+00,3.112477439480736408e-01,-1.771383636555791785e+00,-2.480967624499698376e-01,-2.283268553689692393e+00,1.614450242655202317e+00,-6.294007176781628576e-01,-2.111232052514277591e+00,-3.854787800160621725e-01,1.143618936697584854e+00,-5.466514476038800696e-01,1.614866434858105160e-01,-1.772172001952682319e+00,1.009890231818873163e+00,6.783020676307117691e-01,1.903284392844247552e+00,4.394139717233093712e-01,-1.033545175896952051e+00,3.137764738599931880e-01,-5.653859976192407988e-01,5.741262246596729596e-02,-4.340370378254775896e-01,1.173343499801556389e+00,-2.044107980185021933e+00,7.886086466671697881e-01,-1.219769041855673697e+00,2.320100208143771603e-01,-4.353935739137637650e-01,-1.399596425294909796e+00,-1.145778574879054545e+00,-1.387528224386972653e+00,5.670772567867434777e-01,-1.095903134445720184e+00,-1.769633293207171443e+00,6.705935762794692501e-01,-2.267971662099739494e-01,-9.983272827665514715e-01,7.576466647913978614e-01,1.934965202804038720e-01,-5.921124416965227732e-01,-5.839723994322024714e-01,3.191973059419169756e-01
-4.343338930465159287e-01,2.154236175234642003e-01,1.062439306587055210e+00,7.549042723937150479e-01,1.389746066567182081e-01,-3.768549669213208664e-01,-7.116431052355428610e-01,-5.803610600961317534e-01,5.462226199300425078e-01,-6.461232430320381637e-01,-1.229462235600716991e+00,5.667321793097189753e-01,-4.528967439135458961e-01,-9.061417600980509190e-01,-1.483023636292181147e-01,1.772915190145407438e+00,1.091106507327763292e-01,1.105054470309036613e-01,6.066060258476931866e-01,-1.320460703149980208e+00,-4.496096397316508009e-01,-1.246262407889735746e+00,-2.053824501162343774e-01,5.175193172724190660e-01,-2.523140120185217050e+00,2.884373718562855959e-01,6.357168882542995059e-01,3.836518045507278929e-01,-1.801660655973121306e-01,-3.854478933362883580e-02,-2.919536623887416527e-01,7.759400419502190394e-01,5.751812532677580414e-01,5.591040783102194656e-01,-4.806553474870586262e-01,8.414736321841541633e-01,2.104384873309983917e+00,-2.483917696071193948e+00,-1.156461686102567971e-01,1.857750663581553274e-01,-4.103073864758289835e-01,-1.983921057783476216e-01,8.275508317027681082e-01,-1.174356538491885815e-01,8.914981052479881152e-02,-3.481587294354023809e-01,8.336031639705629992e-01,-5.781128781450049596e-03,1.411143701411468498e+00,-5.040126173296753942e-01,-5.184705467945687207e-01,8.783670427978662598e-02,1.411105927465155174e+00,6.162435313086750410e-01,-4.506867704161089394e-01,-7.160241818239763134e-01,-3.800045471820590742e-02,-7.269163305265994302e-01,8.536189242930911636e-01,1.372747825967362001e-01,1.003232178787732742e+00,-1.087090282853202527e+00,1.424817952661918963e-01,4.891244004415755131e-01,-5.659329674428457135e-01,-6.439594126621464021e-01,2.780763305198911683e-01,9.823449577548086786e-01,9.626716715809185976e-01,-2.907346609942780824e-01,5.363122631172433374e-01,9.223922580932618631e-01,-7.519437235467484326e-01,-7.194937965293061177e-01,1.368486246191572275e-01,-2.827265205742981458e-01,1.541158778423972864e+00,5.534606084158925077e-01,7.777368656378332856e-01,-1.000263791824633319e+00,2.057552943659527678e+00,-9.889024426483599139e-01,-8.363853968084471457e-01,5.843472411517339760e-01,-9.665899900901309127e-02,-7.457819242553866135e-02,6.702809710699725310e-01,-1.063961730325364119e+00,-1.773664380238970939e-01,-4.025971077131278858e-02,8.279365920837410409e-01,-4.737707760680122115e-01,1.963005057307583234e+00,-6.081646334364537720e-01,2.038152623743227088e-01,3.422850655335515913e-01,1.677410051974730365e+00,9.989994185328147924e-02,-4.806245306843141551e-01,8.419977895497809950e-01,9.722543773056683269e-01,7.711289947282003350e-03,6.567842676375558186e-01,5.293443592768672795e-02,-3.096577142513221581e-01,-4.089805693990128388e-01,-5.664277684807084157e-01,-6.843883877111121006e-01,1.674836403325582923e+00,5.759707920059067288e-01,-4.194413400645843892e-01,-1.513759234950059263e+00,5.401062142898519491e-01,-6.712415229569854702e-01,2.311622471099043175e+00,1.315960956588578368e+00,-2.895115230829848896e-01,-3.249910074185622388e-01,-3.790212187833828794e-02,-9.883900049670123478e-01,9.282325385096883430e-01,-5.382377083647946897e-03,-1.034212127176961094e+00,8.540674398204295414e-01,7.130325264623026404e-01,1.769467216634593859e-02,7.147803634755978130e-01,-4.358664512507596789e-01,-1.164512544770636981e-01,-6.502262709097164084e-01,-8.446234481045699072e-01,-9.371643635462739708e-01,-1.393633436184018359e+00,-2.493437724477804096e+00,1.228602324459889678e-02,-8.547013672719782074e-01,-4.440514495106803738e-01,1.089369645536957254e+00,1.610730913831946776e+00,1.110168383618794552e+00,2.431404853805448685e+00,1.218565746047209908e+00,-8.522866903128966110e-01,-3.170227470028290639e-01,-5.326095969987539869e-01,-4.435318762212286936e-02,6.933127411864763168e-02,1.096609763795152626e+00,-1.002391767872107486e+00,-3.970635986362381908e-01,1.905231084884735082e-01,-2.594045177355860154e+00,-1.052607604603539748e+00,-1.958253873243789522e+00,6.678943302203628196e-01,-2.195709275915631586e+00,-1.029860002952980302e+00,2.922612505227845103e-01,4.023564946762146488e-01,8.288911649290615635e-01,7.212797855549681891e-01,1.462316256834130579e+00,-3.162306973322059345e-01,-4.638729837067274708e-01,3.473393369374677131e-01,1.757982577784913625e+00,-8.205500424527967240e-01,-1.052996226840219096e+00,-4.678664972840708147e-01,1.395947943088001297e+00,3.839887850617389464e-01,-9.228240788576254072e-01,-5.642837360270418490e-01,-3.730241776763063011e-01,-2.370801217103373493e-01,6.994224329688897290e-01,8.309192041709310139e-01,1.102056896282625820e+00,5.551084807653655639e-01,-7.382938319359689805e-01,-2.662638306688591139e-01,5.803008364790626095e-01,-2.300303899934605045e+00,-8.656243542245428690e-02,-1.515324086663818015e+00,9.433253687491612860e-01,2.138634886478989194e-01,1.474127959116693587e+00,-2.244024053475354996e-01,-2.966819154082199206e-01,-7.797774303729182455e-01,-3.332969961300739636e-01,1.113354097734403414e+00,-1.467046518056948745e+00,1.779257361877861987e+00,9.071103311393154955e-01,-2.139026812322613935e+00,1.227196621261199549e+00,8.481227465837248847e-01,1.917219999307556710e+00,2.144531593918227175e-01,-9.465403807567475125e-01,-6.079674046949367083e-01,1.445831355085574588e+00,-1.729600218232847819e+00,-1.046308782499301593e+00,-2.259585165605187615e-02,-1.210219519430187241e+00,-1.060235569335583605e+00,-4.566247824559473145e-02,1.292306252543595324e+00,-6.543507035258966376e-01,9.302854290500897072e-01,6.331882428518401107e-02,-7.510289609357866381e-01,-1.378996613312354791e+00,-1.048658369856288575e+00,-3.997335370226953177e-01,5.065811949501806966e-03,-1.100126258737785662e-01,-4.283477172195825355e-01,1.399964020867842107e-01,5.301752532037360410e-01,1.134417334995670767e+00,1.630094633800776571e-01,-2.826400231711692079e-01,-1.527262524864643867e+00,-1.306564706935456677e+00,2.358307525728805532e-01,-1.386474659023718914e+00,-3.083138414724245768e-01,-3.784491723031536692e-01,5.828791738115944865e-01,1.427671276528097166e-01,-9.130112575940725339e-01,-3.958081260812817276e-02,-9.513957595590087635e-02,-1.180814734068290850e+00,-2.135068775704977995e+00,-1.135772081962008961e+00,1.719085799341716903e-01,-5.660333546169494801e-01,1.542761078528865015e+00,2.303296106749489480e-01,7.736214534718500735e-01,7.247494333674743272e-01,-9.301120045683192172e-01,-5.258356166768015649e-01,-1.263674339507567579e+00,-2.855686582569489373e-01,5.946523585973310100e-01,8.930286699932851180e-01,-6.745962043024320565e-01,-1.532066677262575949e+00,3.245731876666702737e-03,-5.361769497657262878e-02,-9.084548016808561277e-01,1.743087977706342384e+00,-1.333082614020282719e+00,-1.069437656013024762e+00,-1.510519136149917951e+00,-5.967454313836040303e-01,-1.826976526558813152e+00,2.769012135172803091e-01,-1.010495528949977073e+00,-3.700846722438873582e-01,-3.270021243384306775e-01,-1.126824618253846833e+00,1.712319861062644888e+00,2.983984376556131357e-01,-1.292451162621947258e+00,-2.931680814080518949e-01,3.143964779518433339e-01,-3.785913755499675237e-01,-1.196463256760283533e+00,-1.183486492715638549e+00,-9.919457902189305898e-01,-3.322956001212743482e-01,1.293952907830610899e+00,4.281526225065401259e-01,-1.017562643900569608e+00,1.403017285839027295e+00,5.387221013115108814e-01,-1.223926294551777483e+00,1.716621597700002999e+00,-6.909544559083690141e-01,7.981840253933384366e-01,3.188048016952214070e-01,-7.779787306401606539e-01,3.043097240547037452e-01,2.633604841221786619e-01,1.048390663900894554e-01,2.021640149767563788e+00,-3.199618427420775291e+00,-1.245217753348867307e+00,-1.821441542441740724e-01,1.370747196674093893e-01,-5.531250007132005875e-01,3.066944318965443839e-01,5.016643876857851403e-01,-1.023528249762029885e-01,-2.328362854540158844e-01,8.296482986583880725e-01,8.938662010007274450e-01,8.878518926479726792e-02,2.426816050252670331e-01,-1.734582200020528264e-01,3.645149243061367450e-01,-2.478398174233488738e-01,2.097807559738866789e+00,4.381975945863894606e-01,-1.342944973966638145e+00,1.597803964589231684e-01,-1.114372954345326239e+00,1.598542777433238582e+00,-3.264315608518338907e-01,-7.370960098351264644e-01,1.672148138664417416e-01,7.573762440109720051e-02,4.603539583731172669e-02,-1.300532463227780822e+00,-1.022968118558005735e+00,-9.654877492908555681e-01,-1.610219717736720346e+00,-1.782372387905631697e-02,1.346019196933814221e-01,-1.515198251807543972e+00,8.306331666264402669e-01,-9.578774192232062390e-01,5.082790490125557170e-01,9.494306330519249881e-01,-6.978915260391840292e-01,-1.547025954484287702e+00,6.392312831236455217e-01,-1.313220120150264902e+00,-7.793263215364383267e-01,5.236277820655894644e-01,-2.227808063128180194e-01,1.035535151680453680e-01,1.336437040741337734e+00,1.592467336914562104e+00,-5.398167928467149101e-01,-8.303465556666317360e-01,1.628219846460988496e+00,5.504369013164702729e-01,-3.728459058577306973e-01,4.428760983818653962e-02,-1.254888831738782684e-01,-2.530057530880660543e+00,2.914693626398415227e-03,6.705581784592773431e-01,1.058300527844899364e+00,4.783456015245138859e-01,1.916601450681488128e+00,2.487398183197325197e-01,7.605703570393127499e-01,-1.030458264298108828e+00,1.745650902087317602e-01,-8.151303406351850800e-01,2.712083412038605590e-01,1.058293248412591758e+00,1.107653377854522558e+00,-4.277568358448070179e-02,-1.251357070172888442e+00,1.335976954381727033e+00,-1.064494407138628862e+00,2.568321191652676860e-02,-9.614538197062194591e-01,-5.661586414607309159e-01,-4.157243266598858317e-02,4.217128306166768592e-01,5.737193584367866750e-01,6.933017783587094307e-01,6.926832703251274426e-01,-2.793412222052089056e-01,4.456738364204106961e-01,-1.805231475039305034e-01,2.668000652542784623e-01,7.284400561399694274e-01,9.037803957620073048e-01,9.718665331836052745e-01,2.494933366363165095e-01,1.947240555312237609e+00,6.731692627448434552e-01,2.605203550840138882e-01,-1.025792073742836319e+00,1.758886594286145910e-01,1.528460704114526836e+00,-8.172985311595083457e-01,1.429469592602865546e+00,7.270350825431679542e-01,2.641567855509794338e+00,-7.107905052025988990e-01,5.663965166048366973e-01,-1.563012943059235715e-01,-3.195736602837135898e+00,1.275547955527263300e+00,-5.231933676653037768e-01,1.373627458695403369e+00,4.871185102141871726e-01,-2.769948966288862113e-01,8.335066794819796510e-01,1.049212311387500041e+00,1.386144864361839701e+00,-1.386169990991226453e-01,1.256935329685688663e+00,-2.862852562439855975e-01,-4.246438035261808075e-01,1.371851064937201492e-01,-7.252246605694580017e-01,-1.938518515780706775e+00,1.388468192237378274e+00,3.953746194028776584e-01,-2.012499700417126558e+00,-1.190170523020888993e+00,-2.387439649992738055e-01,-1.059606668756386094e+00,-7.945192153832885025e-04,-6.364537133884473619e-01,-6.282817609728075237e-01,2.409517241457708459e-01,1.302452161750382809e+00,-1.477391159370163631e+00,7.974333833410065520e-01,1.387478050923644624e+00,9.076360990674257057e-01,1.723348228452413755e+00,1.306180112800777449e-01,1.650201704664693514e+00,3.291294844825207178e-01,2.807768213076549668e-01,1.260751670090546117e+00,-7.243375069088138496e-02,-2.039892496626992680e-01,8.139905474806409247e-01,3.600338404864101838e-01,-6.476783855866196093e-01,9.075922213715118536e-01,1.074622918950032036e+00,-2.718060667321269275e-01,-5.777125985964405297e-01,-1.394791434809679487e+00,8.103817209917457687e-01,-3.963361508454665283e-01,5.713319084294619099e-01,7.800398870506116689e-01,8.070946833161624090e-01,-1.350363844430506888e-01,-1.229284373079885473e+00,1.781729595631622587e+00,-5.917095334998344613e-01,-4.059378437884230140e-01,1.039247211497440482e+00,-2.147644926728406123e+00,3.501064900347125586e-01,4.286610977968653424e-01,9.213578696924262790e-01,1.054928627337861080e+00,1.038310094949869700e-01,2.135574589159571435e+00,1.353734458981084243e+00,-4.401049127053287269e-02,2.555121649517584359e-01,1.319773246639004860e+00,1.151512365298261800e-02,1.310331926268582636e+00,-1.052558100085432713e+00,-8.877695883260719456e-02,1.379661734932429717e-01,-4.894155702306283162e-01,-7.996602744822315367e-01,1.148578073118396992e+00,-3.577681491628604271e-01,-5.199878397471859870e-01,-9.511931253139263021e-01,-2.486619321644205627e+00,3.396608145837458625e-01,1.175748539541566995e+00,8.519224710281786406e-02,-1.968998095458619479e+00,-8.192214264488250075e-01,-1.820819144157866720e+00,-1.179219260810800834e-01,-9.780845870469152548e-01,4.514232132914167694e-01,-9.231711927772472404e-01,-6.224479352986269504e-02,7.109347268714917290e-01,-1.482754943106247003e-01,1.109668621591491489e+00,3.386848426060747319e-01,-1.137455478903813405e-01,9.157821036879355558e-01,-2.953568961724655773e-01,9.038701694313642232e-01,-6.646708697252771969e-02,-6.126369156319774190e-01,-1.504162361606929066e+00,8.372924386075715208e-01,-7.874053553229161118e-01,3.941873022397881371e-02,1.498021055149180158e+00,5.885116218881408789e-01,-1.093983254276323480e+00,6.713431984628415172e-01,1.136334766483094061e+00,7.434346044055318847e-01,3.950886404184905110e-01,1.285406513563066844e-01,-9.067467898987617847e-01,-1.041396507125712523e+00,2.102797281124685336e-01,-4.211582058114792804e-01,-5.058203178718558846e-01,5.999271461561714869e-01,-8.188040068559220008e-02,-1.290222394424785368e-01,-9.391764623206121376e-01,1.039223324448508734e+00,-1.198569002978642661e+00,6.396782997554956163e-01,1.664810036241808344e+00,-8.066050575802605760e-01,-2.021083338084849190e-01,-9.303714079052626262e-01,-6.006443544567113824e-01,4.548564632441592231e-02,1.151046266757107972e+00,2.840313622006785943e-01,-8.744925953153908083e-01,-6.925391468692004837e-01,-2.259585155917264998e-01,1.675939230947312675e+00,2.363852294484564132e-01,1.514095612264386263e-02,3.046499521204539263e-01,1.295181010638671859e+00,1.037637782357303806e-01,1.047924812381686444e-01,-8.811577626710291877e-01,-3.877085452117025044e-01,-4.475467076437730229e-01,-7.850757065009210667e-01,-5.154781729841312332e-02,-9.033794891703423868e-01,3.442185273132334355e-01,-1.848248476418997144e-01,1.306652793765151976e+00,-2.963162479507905900e-01,5.922267584310584310e-01,2.987760742122314572e-01,-8.658393948544910179e-01,-7.638571625401077148e-01,3.844598482114819360e-01,2.481857382519546129e-01,8.930367638138655972e-02,7.885645544266063622e-02,3.887376455354409899e-01,4.602002081117493870e-01,6.029881758214481469e-01,-1.135843472286904188e+00,8.138273539901276221e-01,-9.990079704048738796e-01,2.860039171443318762e-01,-7.076259184461586305e-01,-3.297422538182451790e-01,-1.657582666482588118e+00,1.394456998772606759e+00,-1.349360831404132988e+00,-1.118387464967237399e+00,7.133269923808668311e-01,9.663207766520671704e-01,2.962110225519234974e-01,-1.571339730749389263e+00,-2.800822118638594538e-01,-2.510095959046762193e+00,1.067691735477557691e+00,-2.256749955719252743e+00,-1.187381563642556870e+00,-1.095721813734109595e+00,8.028487897702630827e-01,1.231130718553595377e-01,3.964538209913719413e-01,-1.372193373082873702e+00,-1.145819726685572526e+00,-7.343173203505168889e-01,-2.408158955400369061e-01,1.722346210052920545e+00,-9.680897432010470149e-01,1.398539188236390118e-01,1.163330155231367513e+00,6.278542176801433783e-01,-5.770543483082152258e-01,-4.694924701933101407e-01,1.823192185569876500e+00,-1.712038313832346947e+00,-1.022866963921488681e+00,7.599301169682269874e-01,9.510308767491439108e-02,-2.032927513672428077e+00,-4.348937399251172065e-01,-3.431691798814551220e-01,1.228434547291404472e-01,-1.376650158657932443e-01,-1.792922938090056317e-01,-2.829509445715739924e-01,-8.588064468218111758e-01,-3.808639313336925625e-01,5.672562391960744854e-01,1.379643071878881466e+00,-8.454691850805148290e-01,-1.545014100712666094e+00,1.587970446190535290e+00,4.694653521596609536e-01,-4.751224387243590530e-01,3.817334647200921333e-02,-8.658657591461832448e-01,-6.555681448658406962e-01,5.974192471494799150e-01,-7.691951117698803131e-02,-1.535084265506251877e-01,1.476142825235378986e+00,-4.494843413845689417e-01,-1.702186860318215256e-01,1.444086296419100357e+00,5.579078289165283477e-01,-1.320905461344601184e+00,-1.821984537151507266e-01,8.602876582312022347e-01,3.869760788738887958e-01,-3.505856305674157070e-01,-2.262192572803951585e+00,-1.201301897094098514e+00,1.210856032514883829e+00,1.252173642071261028e+00,-6.517252651483855519e-02,-7.039846569887561190e-01,-1.011894523597098861e+00,-2.888573834127513562e-01,-4.289070318953307481e-01,-2.714763702226215880e+00,-1.433948134667039354e-01,-1.900156263549551416e-01,-1.155954942916945782e+00,5.154619984726176440e-01,-1.066285502464091595e+00,3.088082055250578883e-01,4.980057311010384624e-01,7.517145199951278389e-01,2.547888328127422830e-01,-8.159358099841049761e-01,-1.536834780871161765e+00,-2.745051550262036510e-01,-2.464317385295984320e-01,-1.284251867924806945e+00,-1.175744672738730179e+00,-1.265266274510683520e+00,-1.589072594906556724e+00,-1.002951067500920557e+00,-6.588782508334849186e-02,-7.279296489507083301e-01,2.069802606977079740e-01,2.220986168825448553e-02,2.322488744100814184e+00,2.609975363437261331e-01,1.203534593753179172e+00,-4.919563566933623511e-01,-7.279141690867727554e-01,-8.779038028634512936e-02,-7.299759747156954193e-01,4.683386772172780654e-01,-4.048653744306872637e-01,2.482873998154134121e+00,1.472009943091130646e+00,1.274262125353692099e+00,2.340709811757928638e-01,-3.312490643735285789e-01,-4.990878549183166979e-01,1.952826724366306443e+00,-3.548082233833634302e-01,-8.947886800764521809e-01,-1.355819368657034119e+00,5.241235351804895970e-01,-1.061426699244840677e+00,-4.139723912462546784e-01,-7.175215295711886987e-02,4.860137604361746688e-01,5.988517327721313288e-01,-4.405622013693396566e-01,-3.793202852494781396e-01,-3.038423053212733344e-02,-5.874463642952120201e-01,6.793138335550011897e-01,2.306022055608989152e-01,1.854050206700622372e+00,1.246780895398413191e+00,1.822352087905646068e+00,8.176113885385823954e-01,-1.025968163260654181e-01,8.511031381370423587e-03,5.219359339264835196e-01,1.515446663276334816e+00,-3.933776239820783616e+00,1.006953146866768956e+00,1.750509230779056027e-02,-4.732780888871508940e-01,1.090230709099755835e+00,4.598105380067427639e-01,-2.884299119304586378e-01,7.342679805694900530e-01,1.247885116519394266e+00,-5.209555303547470650e-01,4.368046516008619595e-01,1.571922319238997223e-01,1.577908241361933861e-01,2.507130341360197523e-01,6.697714573322709475e-01,-1.147652950343080791e+00,4.676584701993807824e-01,1.447527668653672550e-02,-4.634132871242133689e-01,8.010203284854123806e-01,-8.214889292511329266e-01,7.859744646556287018e-01,7.779134928231663526e-01,-7.845648299401605241e-01,-7.422255149045774436e-01,1.480325260081335248e+00,5.947314171200243083e-01,-1.079317952776918110e+00,1.510010525410351301e+00,3.636955291138015411e-01,1.527663034273317955e+00,-1.830989910275997445e+00,1.451087185383933997e+00,-5.794147469580610554e-01,-5.647550636436175081e-02,2.138983737298821020e-01,-2.034001859083651165e-01,9.554603247786704889e-01,8.780680546254473473e-01,5.226466632186372863e-01,-6.748411496300535939e-01,-7.318013090323499670e-01,-1.274000371332750792e+00,-1.657515985632434796e-01,-9.392659052899594574e-01,1.061697091542563420e+00,-4.038682790717306181e-01,-9.438725453226418649e-01,1.694609686156824724e+00,-1.715595752392077067e+00,1.054073312461348166e+00,-3.779069191824791507e-01,-3.654062431772596709e-01,-6.548533685665905990e-01,-1.273201024677557802e+00,3.474652121948018646e-01,4.674094769614698525e-02,1.819307804662595451e-01,3.111143049374141545e-01,-3.376072393725052488e-03,-5.412109347206287557e-01,-4.565555928824814313e-01,1.675669857558290399e-01,-9.978573266247345308e-02,-1.032083906709793109e+00,3.563759417213274161e-01,-3.261820717464963826e-01,-5.109445440654943882e-01,6.997480558665761796e-01,-6.245692670831283211e-01,-1.450902872418029732e+00,1.646797435486800465e+00,-1.388798101061020640e+00,-1.427217196557966750e+00,-2.307524039760991685e-01,-1.266858420937452268e+00,1.316899499573622068e+00,-2.038019236665190359e+00,-5.555914251683240490e-01,5.429318244735032994e-01,5.115703792049064447e-01,-1.574565779745392413e-01
5.346840040694676027e-02,-2.906794638693552257e-01,-8.165676156764865024e-01,8.131431059716014431e-01,9.639944656369893172e-01,-1.140703335407827090e+00,2.432843515699426029e-01,5.168846742370762914e-01,7.177966838252556325e-01,5.238967648086465534e-01,1.878361761657385345e-02,-7.915025435669386100e-01,7.277714929676409872e-01,-1.941033911125589428e+00,-3.423316948317599029e-01,1.002002936157158741e+00,-5.882585790283332422e-02,-1.485843367007711358e+00,-8.153907059436171778e-02,9.631817843733887496e-01,8.647317913750508511e-01,6.380739412271522193e-01,6.693653256440746935e-01,-6.172329495574058883e-02,-3.011545231672147493e-01,1.029065097116381500e+00,-8.681225367579199492e-01,-8.708863223872972403e-01,6.118519685539794972e-01,1.351418206331699956e+00,-1.876437376133711643e+00,-9.766613206017421556e-02,6.898129632965928071e-01,1.019983348863036321e+00,-1.172222234361336879e+00,-5.919010467722251034e-01,-1.527103755859972711e+00,4.259221080697476736e-01,4.908092743146118542e-01,7.845997363333654384e-01,-7.771675655109822056e-01,1.025951873033905892e+00,1.169048751797319818e+00,-2.219956641928009511e-01,-9.907321369501068675e-01,6.457016828993920043e-01,-4.264020643488997675e-01,1.984304623271437584e-01,-8.164140648163643599e-01,-5.632657253322733704e-01,3.998953851687367389e-02,3.201403634702083001e-01,1.780030906848583561e+00,-4.652659533131950353e-01,-1.362958754254404714e-01,4.623333366939799127e-01,5.239003621486609807e-01,1.140176305089489334e-01,-3.666351418414733332e-01,-1.123368464416472756e+00,1.534581789446385791e+00,1.236054736835441092e+00,-6.058288778822873422e-02,-4.850444225248228824e-01,-1.535971921787874228e+00,1.977627138872015966e-01,-1.557841133179178383e+00,1.749850952466519116e+00,1.179532181507420230e+00,1.832076602234749885e+00,5.006355689234384121e-01,1.095731522173085670e+00,-9.325264895434141055e-01,1.020940932112150756e+00,4.221870804467665605e-01,-1.678027911725711863e-01,1.045745801650558748e+00,7.398017422232332496e-01,-3.069305076014889333e-01,-4.107404297515716562e-01,9.781862894354210747e-01,-1.189213613370671219e+00,3.681679333662239428e-01,-1.862029961824514801e-01,7.105326410821030669e-02,-3.946444181238464854e-01,9.991717533512159966e-01,5.718179394735878329e-01,-1.427880741466883929e+00,5.848322157274488120e-01,6.812312316028462655e-01,1.067922104654823068e+00,-1.017208344394214148e+00,-1.204170481830368900e+00,7.489546959545205773e-01,-1.052911725733108872e+00,8.232090182916752541e-01,-6.609837940942407952e-01,1.045104712348838283e-01,-7.733172155149138360e-01,4.306971678979716889e-01,2.323336817568777857e+00,1.386479688920989162e+00,-1.653057165835319697e+00,1.465243806261752102e+00,4.465653412837194414e-01,1.038996474535872183e+00,6.109668740875289217e-01,-1.254445950025895096e+00,4.822324888292667255e-01,-2.265183819102309037e+00,7.121688190820057995e-01,-6.158162610247052138e-01,-1.556312479305294261e+00,-8.875341697619866244e-01,1.011731426437015413e+00,-5.949057179647717630e-01,1.820717472551390159e+00,1.184321712188846965e+00,-4.421670937151370717e-01,-8.813255287652368430e-01,1.105745405333276449e-01,1.609295564573242354e-01,1.740671157287869031e+00,-1.435522505377963220e+00,1.894461285681789120e-01,-2.017415705083310806e-01,-1.960686829593898395e-01,-4.543615245191798269e-01,4.824220114649469537e-01,-2.694161738410509321e-01,-1.622635475242987513e-01,-1.368855319588067943e+00,1.740227293309956735e+00,-2.824314191231778737e-01,-6.185401556175770810e-02,-1.762568047643565894e+00,1.331218932632050045e+00,-1.055627109091857196e+00,-5.212489361866439186e-01,1.181214585697968333e+00,-1.121043204678546568e+00,-1.108341005248866945e-01,1.661270755814980404e+00,1.070676822632691705e+00,-6.147933451766022239e-01,1.011247465195086459e+00,1.520270640896039360e+00,-5.907180042361479533e-01,1.936414924356675074e-02,-1.499424151987240050e-01,3.633264163453536755e-01,-4.383711573694794583e-01,-8.480100847576557688e-02,-7.242546110730170295e-01,-1.825412537306672078e+00,-1.519456222046370875e-01,-1.059205973659596012e+00,1.760261232528953501e+00,4.983617772715259048e-02,1.008200557034271361e+00,8.118572777104330340e-01,-1.980077367437179658e+00,2.716214829387801344e-01,1.211117094621482274e-02,8.346775503810607288e-01,-9.584252971437827728e-01,-5.142703572916164090e-01,1.293427166944288720e-01,4.386426860134668426e-01,7.671228843618966842e-01,1.840615995905818258e-01,7.969898630843841314e-01,-1.209571326802753033e-01,-7.675738167255202749e-01,5.636996985679746386e-01,-1.348444754548731472e+00,-6.366343956714763941e-01,-2.554680312271332410e-01,-1.048886628707890400e+00,4.703499210297926725e-01,4.232064160652438400e-01,1.083556624552800329e+00,-7.478188577508174117e-02,-8.186532782124161800e-02,7.775114280009273182e-01,-1.130932698549163229e+00,1.268034704642613808e-01,-1.085510746435102591e+00,-5.989256317977916799e-01,6.020595329528848350e-01,-2.032703935259769779e+00,-2.185218763670372599e+00,5.914067163953501405e-01,5.985861897369751938e-01,2.726204649222859211e-01,5.705129871269276620e-01,2.013980716562528084e+00,3.683879366687850543e-01,-1.513740094945325465e+00,1.765131704386494263e-02,1.540525829432632388e-01,-7.504855253697930717e-01,-6.853300723752714374e-01,-1.471297548638414443e-01,2.778013758762838403e-01,1.356903902231674452e+00,8.681308157567936279e-01,5.469956190940264973e-01,1.485361559066152193e+00,2.688572124871415170e+00,2.884325398935379425e+00,8.828085949697790369e-01,1.766426748687507597e+00,7.612646216086014217e-01,1.350433771524801818e+00,-6.825778568828585469e-01,1.371181026344879150e+00,2.763211627266013437e+00,7.700162856632163377e-01,-3.090747979872041640e-01,1.713539644342663593e+00,3.191030081867892755e-03,4.059691888804481952e-01,1.364314409545471563e+00,1.114149744113131169e+00,3.096073179470995758e-03,-1.597054741688946899e+00,6.877873624615191694e-01,4.593634391633384384e-01,-4.781350539229576868e-01,-1.179293703181187647e+00,-3.841647773518164916e-02,9.998766322196576128e-01,-3.393581878570707255e-01,3.187775531618199376e-01,1.390188412068232404e+00,-3.265269623943333754e-01,1.950394461079471231e+00,1.863088419586790057e+00,6.837466517063939264e-01,5.392204062910761486e-01,1.948357224580478775e+00,2.254942124470218079e-01,3.443448635995927654e-01,-9.904435999135449142e-01,6.095374920268012975e-01,-1.363113691535660310e+00,3.181089633577938725e-01,3.952221740901349922e-01,-1.978856943705588067e-01,-1.908786696982207598e+00,7.833215281302810529e-02,9.795855471162190353e-01,-2.810839151547550596e+00,-8.759139282937066229e-01,-6.704315693628601913e-01,1.743647099419759261e+00,-1.200984115950967657e-01,1.048661967915171189e+00,1.086849126807975657e-01,-1.386566973095816557e+00,1.297848840577759955e+00,5.818716254027751500e-01,1.761841122819967964e+00,6.639255584883382300e-01,2.726425859438989185e+00,1.329199539517057493e+00,5.271873086790846985e-01,1.396318711478699237e+00,-1.034990461874972789e+00,1.095251025263267897e+00,2.703238732955196566e-01,-5.574209829888790990e-01,4.063991608807596689e-01,1.977753118951402600e+00,1.355030188304575445e+00,-7.603413409254653477e-01,-1.089614278435669270e+00,1.011798811649770924e+00,1.277813469990511097e-01,2.367597826988334375e-01,-1.018628580953147900e+00,-1.871238028925789276e+00,1.923504677127116036e+00,-3.334204799938379066e-02,9.811628801838871983e-01,6.257417979846131573e-01,1.374583973335030462e+00,2.383105355999763475e+00,-3.472570964648415831e-02,5.031288056234035633e-01,1.887461241480445917e-01,5.212384541447370179e-01,1.313266157176139926e+00,5.613485978917421848e-01,-7.505970748406410875e-01,1.084551756369539266e+00,3.825374425065601325e-01,9.371831756175675876e-01,-8.884328106287993077e-01,1.119178232149601292e-02,7.600205516523081961e-01,-1.491615141299286185e+00,-8.467795313810326796e-01,-1.054026753703647845e+00,5.318997387192117010e-01,8.723175295031302401e-01,-1.435289261342954648e+00,1.180924431300431676e+00,1.105924790393812529e+00,1.567515952973745019e+00,-9.864117622908303851e-01,-9.821668172337219005e-01,-9.929540296660342713e-02,6.257728989369404360e-01,-2.423172003338039282e+00,-1.062744880982969597e+00,-3.486292879670871980e-01,-3.185083380923579011e-01,-1.298197381258739735e+00,-6.164682060879985714e-01,1.322235288235066530e+00,2.842153936054547803e-01,-5.431412747831019378e-02,-1.679446631442990667e-01,-1.156154181958447547e+00,-1.358390191406135261e-01,1.343472072515178084e+00,2.400562309923939264e+00,-1.789034057540726197e+00,-4.371914845981808018e-01,1.338210295766462554e+00,-1.764988439788765517e-01,-8.197371169157512405e-01,4.711991046864126842e-01,8.573183996678895857e-01,9.630262037765693339e-01,1.254575416452464731e-01,1.317331012330179574e+00,6.633518389939874194e-01,1.408718804221610332e+00,9.045669287940094616e-01,-6.598470718737871055e-01,2.004438104084831362e+00,-3.755642498703103405e-01,-9.471935950026891815e-01,5.833235544568057124e-02,-4.342768488174671426e-01,6.000026649811593948e-01,-1.371476921537191085e-01,-1.739983931647201554e-01,-7.728697350766140506e-01,1.078860410900261080e+00,1.458612251769624280e+00,1.040819222229304675e+00,7.470040584811357687e-02,1.270737673464675532e-01,5.445027673843286786e-01,-1.075832048036402755e+00,1.025548378998184296e+00,6.318070097156988085e-01,-6.906196996361660956e-01,-5.629482169607386011e-01,3.700981445416368087e-01,4.733739793124543960e-01,-1.529133835684401088e+00,-4.134051194897542802e-01,3.890367614824754017e-01,-1.105422484842130793e+00,4.258877865126725615e-01,6.951200501206986626e-01,-1.112320661958336121e+00,7.879148329279707097e-01,-8.642409228644657437e-01,-2.034973462412950962e+00,6.734900839459102839e-02,7.346888574429868424e-01,-2.371086401034505908e-01,-3.275413225119201965e-01,-6.800575138501977479e-01,-1.314624826234910726e+00,1.345281490457918672e+00,-1.089330596131745432e+00,-1.134133170593968121e+00,-3.404471059026861202e-01,-9.269190592101010928e-01,1.023493719944454039e+00,-5.343581562003640872e-01,-1.646949007532568565e+00,1.908826257610645394e+00,-2.047516946569704732e+00,6.097827347832175393e-01,8.449608675456187212e-01,9.538627110877890836e-01,2.016210053977191552e-01,-7.091423657758904042e-01,4.829205267031484033e-02,-9.333676411700130293e-01,-1.071118104507918112e+00,9.844246739668577328e-03,-9.079105524862743914e-01,-1.821113432521420883e+00,-1.913784633950961434e+00,-1.363846184651326121e+00,-2.000660158206219563e+00,1.600705462114400790e+00,-5.324076860866829852e-01,3.809732806043723552e-01,-3.728240603535856734e-01,-4.232523310732388966e-01,-2.168403512201333982e-01,-8.449218685809762874e-01,9.113988984741216992e-01,-8.581935915654672620e-01,-8.987860041915497478e-01,-5.807059731059914798e-01,-4.631723636574702763e-01,-8.461027305338147952e-01,1.245970059242983208e+00,1.037456902303254408e-01,6.223471074415917181e-01,8.882694616817986555e-01,5.938756121378457875e-01,4.438382600668351885e-01,-2.212042558227954037e-01,-9.867701739623814527e-02,-1.316660385914901754e+00,-1.178504712806619281e+00,-4.944794473960280601e-01,-1.475051716971413074e-01,5.434916007390306891e-01,-5.237686701783392795e-01,-5.198941803477337142e-01,-3.802301404582064670e-01,-6.465198857796170540e-01,-1.963828695825373005e+00,-1.051363904511331215e+00,6.656919471446205439e-01,1.140561117663206059e-01,4.541692691662160830e-01,-1.125720387291954117e-01,-2.363242575049067096e+00,-3.015855338876797243e-01,-1.180355931763380939e+00,8.337128696190542199e-01,6.296724642697827390e-01,-5.202968793653620638e-01,7.234351294515326547e-01,-5.693963280414156281e-02,-1.142290211762674312e+00,1.996433913400850191e+00,-3.019978613484163299e-01,-8.734610673467661790e-02,7.171960684078224624e-01,-1.951649308646298042e+00,-4.194927684980564453e-01,3.618322693712278104e-01,-1.134051547818570205e+00,-2.769184937677798830e-01,-1.756187548101519447e+00,-3.375660413070976085e-01,-8.752987322943727166e-01,-5.798671265884828285e-01,-2.933481824085286405e-02,-6.607117165280964599e-01,-5.142448823585229478e-01,-7.843091465885749791e-01,-1.465251622889919836e-01,1.989996784595983448e-01,1.786614974507201969e+00,1.482948092458374667e+00,6.336398800790679076e-01,-2.984210062832139410e-01,1.834706423686395804e-01,-1.887426727500307322e-01,5.391107744186305339e-01,-2.581824846191095243e-02,-1.456242872412990996e+00,-3.829293075244989963e-01,-2.612596425457165972e-01,8.292780743936996046e-01,-1.272730245069470523e-01,5.789983916203842451e-01,-2.271507504884876294e+00,6.338276458199550156e-02,7.183466889441746384e-01,-1.382016127421784035e-01,-5.624427666800583259e-01,1.186990255138916650e-01,-1.292692969022048721e-01,-5.021794105319842272e-01,2.053299670938635579e-01,-6.936496717548723545e-01,-4.210400428264621242e-01,-1.999090192156416590e+00,7.393468874628827958e-01,1.351132242863866129e-01,-4.200666776511718936e-01,1.430650919852743952e-01,-1.274302510180439718e+00,9.602387047279927756e-01,-5.270009062440244030e-01,-1.390109381940171307e+00,1.624480881230641049e+00,9.203739300574474702e-02,2.773285752435126206e-01,1.321462690796181505e+00,4.786780394483865914e-02,-2.454788395040062188e+00,-3.802031020723109500e-01,1.867929017349660437e-01,-1.075004734455267341e+00,-5.155287264373958900e-01,-1.555583180162669388e+00,1.145396758530448533e+00,-1.338502250627681134e+00,-1.098758008887739557e+00,-4.646089752558217323e-01,4.083258900900244015e-01,4.517844706610787409e-01,-6.744391695241235274e-01,-4.176131345262477090e-01,-1.012086281297892715e-01,4.399274808662345659e-01,-1.093030618095014450e+00,1.794430934834216229e+00,-6.687989588429187338e-01,-5.432214459962617648e-01,1.131579463909643479e+00,-5.814349852919620254e-01,-1.103306695486726829e-01,-9.628407212108054392e-01,4.464237195795691115e-01,4.538507244837767379e-02,6.004231405728349680e-01,-1.197282515471634612e-01,-9.359792019629507021e-01,-9.177926033095614722e-01,-5.169801779141994791e-01,1.236984215668409659e+00,4.666691953227561918e-01,-1.313080507391942930e+00,-5.193912474381515709e-01,-9.445312223909942961e-01,-5.702167176780871261e-01,2.267636033903224768e-01,-4.707900158353832687e-01,-2.224676844460317937e-01,1.323253486144128521e+00,1.018608467672318385e+00,8.452286180075020416e-01,1.265884257472021712e+00,-1.073603276004416074e+00,3.949925934309367337e-01,-6.949702189578399296e-03,1.705978750907174990e-01,5.405411073325490090e-01,-1.995295391773613813e-01,-5.998948560877160885e-01,-1.156427742908509915e+00,1.775130591536975944e+00,-8.014934247858133132e-01,-7.743760329545066323e-01,-8.131700741291578716e-01,-3.996326816221683065e-01,3.922758639925749136e-01,-9.610711025878493352e-02,-1.776408778901239272e+00,2.305556008923820011e-01,1.877125327310881886e+00,-5.307592887640562029e-01,-2.323020746251394930e-01,-5.748863209505985367e-02,1.851423729084897385e+00,3.162752837620605439e-02,-1.463088097241940888e+00,-3.669337588494887004e-01,-3.941873514328073647e-01,5.635072362158196624e-01,1.704993360766708710e+00,4.120705330953628454e-01,-4.207106902395284925e-02,-4.739485458808596063e-01,9.192715974941474411e-01,-8.567771805593489276e-01,-8.744548105360900880e-01,1.207513077673091795e+00,-6.458543630397683977e-01,-5.762597259114305981e-01,1.882066105907101716e-01,8.872000631673798710e-01,-1.393856282538695979e+00,-9.353428083587649322e-01,3.216955998462491806e+00,-1.956344116148617251e-01,-3.905328074646287617e-01,-5.147787155021174010e-01,1.669248268054670248e-01,2.047174326581684134e-02,8.003448379072829189e-02,-5.404131265601226364e-01,-8.442878222630124663e-01,6.540291607671315788e-01,8.988685905634849482e-02,2.920502959359159156e-01,-1.117597159996299272e+00,2.035209378964704385e-01,3.641277147241396839e-01,9.257563171086747866e-01,1.017174756332128449e-01,-5.923131954740536997e-01,-6.182205650915352513e-02,1.117558041394365320e+00,2.783441856791274427e-01,2.379728662864778743e-01,3.123969498799337163e-01,-8.580779313771023098e-01,4.082721017451045042e-02,-8.990859151421540796e-01,1.035243763267248429e+00,1.807601213665077422e+00,1.487943384323285212e+00,-1.179900682238055332e+00,5.213710575577635842e-01,2.340152365258181266e+00,1.042805622475422078e+00,8.338885371102899846e-01,1.227948290676519338e+00,3.336051520468359399e-01,-1.754155166931581578e+00,-2.223059946693146216e+00,2.172554559110275174e-01,1.695817342295302010e+00,-1.322393664048056028e+00,1.010732492392222071e+00,-1.539517277718282839e+00,-1.543141075788275751e+00,1.844585417893121804e+00,4.444468845409750291e-01,-1.467612636388962999e+00,2.328345649774050674e+00,5.712984882347078575e-01,7.189457959686347266e-01,6.580920196429137503e-01,-6.568091406948436406e-01,-3.912651244295194952e-01,8.515242077184750347e-01,1.768120673087237193e+00,-1.398589468609177378e-01,5.185777710696704013e-02,3.473524624944475669e-01,-6.522227363866994754e-01,-3.641941934701435346e-01,3.106655224882292621e-01,-1.050314306089080496e+00,-1.137305705122671817e+00,-7.516051070864623318e-01,6.701496011662664287e-01,4.468992593965109283e-01,-6.571051961534386532e-01,-1.070946919845686018e+00,1.643140529580900400e-01,-1.639841180165268475e-01,-3.690876357473146241e-01,-3.714396129974383287e-01,3.656421885009958905e-01,-1.288252360509261951e+00,1.316664150365272734e+00,1.637896382108676996e-01,4.080406528038753589e-01,9.935157310882426485e-01,-4.561541169535514029e-01,-7.173141439020821464e-01,4.842222650390845540e-01,9.324752992768828852e-01,-5.543005292272501494e-01,2.478391397766570477e-03,-1.040834998320401938e+00,-5.577786894845814247e-01,1.440771182225877856e-01,-2.849332553180012328e-01,1.512196359535750823e+00,2.401606398709722479e-01,-7.810403800617020664e-01,1.673787574847813042e+00,5.342248156705005080e-01,1.837024720133193734e+00,-5.060366370583143647e-01,1.725193118293258498e+00,6.351255965323274189e-02,-1.873953464172714467e+00,1.592769667161633818e+00,-4.287263284268398866e-01,-7.228619986854391000e-01,-1.375875988793195948e-01,2.820070086282138247e-02,-1.423187940055552492e+00,1.238086706322073960e+00,4.328293591582416111e-01,-3.660701748531671740e-01,-3.783319256672880160e-01,-1.485696641651355288e+00,-1.059601644539958976e+00,6.317434645067833143e-01,6.392999850229158509e-01,1.761000272137744460e+00,-1.172990650443740623e+00,-1.380136069320249126e-01,5.819085139451943833e-01,-8.928784037675905338e-01,-5.093467148313431808e-03,2.858116033051655513e+00,-2.768532804613363929e-01,8.448710856057650709e-01,4.199315216616032465e-01,8.046721331233523955e-01,4.559947071197361090e-01,2.871212992284792875e-01,2.226528306482870256e+00,1.174235063373528343e+00,6.073711479740339092e-01,7.504480939272885065e-01,-2.206096165179162849e+00,-8.514895050658969344e-01,-2.130768283657182849e+00,-3.885796331614090326e-01,1.204141633786482091e+00,1.237676268718467920e+00,-1.312875175752313162e+00,6.698119171756544699e-01,-1.531860730215612587e-01,-8.710739526632533050e-03,-1.130388723775385962e-01,-4.851039834552355323e-01,7.988073631944928588e-01,4.997606302223995822e-01,1.795216941822325440e-01,9.532636203790972873e-01,3.249060619578952869e-01,-4.219806707732113304e-01,2.472919554256056973e-01,5.315421850515794633e-01,1.933048736393599698e-01,-1.743763643193031898e+00,8.730854733631336906e-01,-1.338292377820096135e-01,-4.166810691231906949e-01,5.785274033992947595e-01,1.976155996427672850e-03,-8.902730029793930189e-02,-1.139770481916735911e-01,3.340096224644125145e-01,1.519023262059664980e-01,-1.601773144498265244e-01,9.167005328185384716e-02,-6.271613299944413245e-02,-1.125981172336133346e-01,6.316888530747385433e-01,4.288415986134554436e-01,4.524623827714158719e-01,-8.464628980466398778e-02,4.569430374598666411e-01,4.307929911004292761e-02,1.333355943783216535e-01,1.197504304604890990e+00,-9.201267219358182370e-01,-8.711143705773863877e-01,-9.224647189260053448e-01,1.592740010795719252e+00,-9.336374673366925059e-01,-9.752421624507789932e-01,-1.345784624612356706e-01,4.456869428623287943e-01,1.234803047002868276e-01,-2.883560358351549557e-01,-1.130648029702018276e+00,1.230056988512250093e+00,2.517849792758864447e-01,-5.182941252756989581e-01,-1.205687144548055340e-01,4.386556646850445773e-01,-8.986140253573252079e-02,-1.369754811763029601e+00
4.189157031884235133e-02,-1.840845958557721651e-01,-4.122137636751759815e-01,1.656157915803055491e+00,-1.050557090472765021e+00,-1.259718199246391057e+00,-2.594925002546776827e-01,1.381972929353656898e+00,1.171153007057542883e+00,-5.577849413371593901e-01,-6.741162106997048431e-01,-7.399285022143182733e-01,-1.930431863029270945e+00,-2.412415557004326860e+00,-1.390848574399336401e+00,1.396594862306272500e+00,-6.060594154282757939e-01,1.320460215116266767e+00,-1.737830918783050071e+00,5.150391778737205550e-01,1.289183935946025539e-01,-4.325584084753169023e-01,-1.359639142454305505e+00,-7.658460976508568718e-01,6.441702224539657129e-01,9.735339935799633970e-01,3.687366751736434033e-03,1.583440311315801985e+00,-1.540127485664260387e+00,2.645488920969276680e-01,-7.147874589275644563e-01,1.875567322320125241e+00,-3.687380899164385828e-01,-1.520050620509064920e+00,-1.775309207108988430e+00,3.325470020024574036e-01,-5.444427382159646722e-01,1.848687615343927448e-01,-4.584586564915431040e-01,4.932046810777521717e-01,1.478648850077664667e+00,2.049981857650287509e+00,4.374417650152755410e-01,1.342037160022439224e+00,-5.607766608069503222e-01,1.140085120700089716e+00,-5.544383030382633581e-01,1.858169107153626598e+00,-1.281322932463904163e+00,-1.282044395173336793e-01,4.913668669167383096e-01,-1.388573486045616256e+00,6.175052704887327160e-01,3.175323305553078845e-01,2.417570477206729407e-01,2.708383880655734099e+00,-1.335936211153429642e+00,-5.924473432457341149e-01,9.585838612368096090e-01,8.337307635776278758e-01,-1.642240915208232482e-02,-9.971981964368716866e-01,5.104400288184488543e-01,-5.268138957412488166e-01,8.676737072365539039e-01,6.456080428727779541e-01,-6.356979429870831533e-01,-9.526498381775828639e-01,1.225279552325273746e+00,-5.347446358477915274e-01,1.070954076073770800e+00,2.117176823251011086e+00,3.486614824340856233e-01,4.073541236317211878e-01,1.379184531767877031e+00,2.296732866247540583e-01,-6.219043868023190758e-01,-6.416619647739288945e-01,-6.958004254341038086e-01,-6.948320098533783407e-01,1.758987900516419511e+00,1.777562170442479106e+00,9.989213437370344506e-01,-8.592052662626433746e-01,-1.037208392030944282e+00,2.143057838180366215e+00,-1.505039147764908991e+00,7.153294866907301541e-01,1.739995370470524660e+00,-9.975126100529757567e-01,-2.187837586505189336e+00,-1.363277361180401437e+00,-1.176714093554481533e+00,-7.181758463173077978e-01,2.098251168035571101e+00,-6.674306379258481137e-01,4.757601484565184835e-01,-4.104026311362000135e-01,-3.754496677864526122e-01,-5.011112093534627610e-01,-5.372150876781248696e-01,1.288278378271601188e-01,-8.950998047647757208e-03,-2.208728166147179706e-01,7.225712242674795505e-01,8.295608830924674493e-01,-4.505775106276599384e-01,-3.067165170966171583e+00,1.461058360169096071e+00,-2.029644735875975492e+00,-8.154594553236673704e-01,1.035424811329519468e+00,5.008735529055232671e-01,1.799166034278500415e-01,3.153606678801911811e-01,-4.733286767165839626e-01,1.753151755706231274e+00,9.135122429391066001e-01,4.023992263126230373e-01,-1.743344529502913465e-01,1.544941198927487935e+00,-4.763568167889547511e-01,-9.450504758024409480e-01,1.319979940592687084e+00,-3.108392977246609568e-01,6.471889275417305187e-01,-5.786514213051181521e-01,-9.623261407227418074e-02,-3.474956266905146474e-01,8.604985789906519633e-01,-2.398769998139222537e+00,2.741638975331078254e-01,2.022859853767181360e+00,-6.735637028490236433e-02,-5.374771019054370713e-01,1.200965210856250520e+00,6.825047646812272273e-01,-3.924623657776004637e-01,-9.124279937676038621e-01,-3.156025885519044838e-01,-1.253136387682056707e+00,3.657710208982674072e-01,2.190668015607046548e-01,-1.585833757409082612e+00,9.617886555216187405e-02,1.425952826340898261e+00,-1.178205736438479700e+00,1.129084079935101403e+00,1.600240887192845074e+00,-7.191847163013249666e-01,-3.213357029343039684e-01,-1.191934575257394213e+00,6.714288018058452989e-01,-1.224184670599758329e+00,-3.348089909177278112e-01,-8.534590073235829299e-01,-1.463848246908200812e+00,2.616142049982430051e-01,4.619049898012818622e-01,-4.846598175700009975e-02,8.652550493081277994e-01,2.887440139148219620e-01,-3.893268555345776316e-01,-1.434636727348227170e-01,1.167891702871487469e-01,-6.565243028856171392e-01,-2.837180490392341436e+00,2.487801580323480422e-01,-3.124615254618082760e-01,9.239837561483359440e-01,-6.163102004081959517e-01,-5.493338488533712205e-01,3.989421849719776980e-01,-5.591721306897158295e-01,-2.259881961637583370e+00,-1.621395729971829347e+00,1.084508476976487223e+00,-1.537955537792386140e+00,5.442916331257690449e-02,-8.321514577822625158e-02,-4.635535228124466611e-01,-8.933818363931822493e-01,1.686761248158386017e-01,5.877086952474002146e-01,6.116435239517871159e-01,-9.224577774064861568e-01,-9.814966416497407087e-01,7.342391961628563779e-02,-3.343535397997485781e-01,6.876353436996788249e-01,-3.505750794549725713e-01,2.420553060768291687e+00,1.696190801568820961e+00,5.072120833229770698e-01,6.628584598270731432e-01,4.724323518870272576e-01,-4.352040706334758258e-01,5.482591767510006653e-01,1.157285610161068040e-01,-7.320891172391887913e-01,-1.634258307389014675e+00,5.351231841197015004e-01,-8.996732771842109733e-01,-1.089889241295358469e+00,-1.826466737105832960e+00,-3.417451425384463448e-01,-1.185103333522756763e+00,7.180170828163155994e-01,-9.533329641654827435e-01,-6.513337719228398104e-01,-1.100916923872964359e+00,-5.454195177926750571e-01,1.595061573757697582e-01,-1.277860419277839998e+00,-5.666095824149451898e-01,-2.786576543704227804e-01,-2.434273939536030773e-01,-9.295315935455505940e-01,-4.588455350056797055e-01,8.808051663078544369e-01,1.875319381212916747e+00,-1.101065508584945229e+00,8.183329461585465703e-01,4.250515931787304247e-01,4.256405250163490250e-01,-5.003315620665710339e-01,-3.552816255714602023e-01,-8.832488608639236238e-01,-5.430894217218278364e-01,-6.550160335753937302e-01,-7.130214803916204991e-01,-2.166807261879277302e+00,-8.354660176434228758e-01,7.703343218870569720e-01,-5.688759740348056093e-01,1.948127799918766057e+00,7.100087787474720358e-01,-2.284373475208488213e-01,-1.350284267667370308e+00,-7.846706060725521237e-01,2.909816906773032841e-01,-1.009825498169512947e+00,-1.689732143639224304e+00,9.116238506110744266e-01,-1.646335871890749758e-01,-1.382169350837294530e+00,8.660425284731497753e-01,-9.735419370054667620e-01,1.904610973298959786e+00,-1.608426600866558420e+00,-2.519207942537343703e-01,-4.654433264274183274e-02,1.924095691607639713e+00,3.499789117422132945e-01,-8.328487627666736337e-01,8.741753806046809183e-02,6.123732143249265292e-01,-7.142843320295059195e-01,-1.886902275223850012e+00,1.743875819829424190e+00,5.390102308162757483e-01,-6.904122878372814798e-01,-1.501409034141372612e+00,-1.259750870854249083e+00,-7.829037005104843017e-01,-1.589314399217056917e-01,-3.973959505980930729e-01,-1.890944282636712437e+00,-4.573225814280326706e-01,-1.902881111985714746e+00,-1.656117418876459357e+00,3.187253066149874359e-01,-1.263385114268830711e-01,-9.764649960694593567e-01,5.987380570349584152e-01,1.132909171526853331e+00,6.204749694962093942e-01,-1.177361355971551893e+00,-1.112569601419373777e+00,1.760805156900182022e-01,-7.669892263613183880e-01,1.301841054672451037e+00,9.001509421338390604e-01,-1.668474227064741688e+00,2.187474244080631902e-01,1.491217736642026781e-01,-1.265929046414296266e+00,5.421506231628639982e-01,6.648512371393382192e-02,2.468637043589631652e+00,1.298132107882013386e+00,6.434579755664774359e-01,1.485848951062682666e+00,-2.478064227855724874e-02,4.578682669190161647e-01,-1.934339933602923223e+00,-4.207275840897201635e-01,-8.682506203852019544e-01,-1.917411829771485721e+00,-3.068956537658209527e-01,-1.723784730152271294e+00,4.999306374458702962e-01,7.720800468944444273e-01,-2.939603445516886904e+00,1.132683966360687577e+00,1.353756592351690546e+00,5.134829827496485422e-01,8.083446604660158297e-01,-6.057754672989921207e-01,-7.771647636709048956e-02,3.209596244838132661e-01,4.091704547257180025e-01,1.621480334849314253e-01,7.015865297871125561e-01,2.140164067827595440e-01,6.781325760555054760e-01,1.934177410135711650e+00,6.083675289509774542e-01,1.400742362519743267e+00,-6.759358434211977518e-02,1.391454972918120037e+00,8.910065216455739789e-02,4.982899875007975460e-02,3.103553211707674175e-01,-1.075632211272801619e+00,-1.166325755719607615e+00,-1.456416491350055464e+00,-1.701565769317108456e+00,7.946564559773851011e-01,-1.706811869547057992e+00,-8.770928353032654279e-01,-5.524841441182515300e-01,-4.727760244975504067e-01,2.197080735119060491e-01,-1.422716692844516073e+00,-1.222261891625457952e+00,1.035519434461733335e+00,-8.250096187461911090e-02,-1.505343921085168235e+00,8.887098673164172125e-01,6.188142615734795182e-01,-2.306791892751727246e-01,1.185479188513407722e+00,1.260146018175911209e+00,1.231969779686316491e+00,-1.079182097775352872e-01,2.342704015530463479e+00,1.049411181603474130e+00,2.166672903511232817e-01,1.116031992654181959e+00,1.718642707594584484e+00,2.311734230811531843e-01,-1.336315183638352000e+00,1.631840972689280189e-02,6.708130863386931042e-02,7.558977917330802487e-01,-1.949338999858575727e+00,8.377070295615259843e-01,2.070554105760214203e-01,-6.757857778020937012e-02,-1.069058452234277867e+00,-1.768248797724156773e-01,1.306705032165781155e+00,1.686465226329972866e+00,5.871577302082312544e-01,2.049637321245657340e+00,7.051032050939062268e-01,-4.861023753609716169e-01,-1.162169735319884767e+00,7.588237696035689261e-02,-2.679036131290024603e-01,-1.931184598182778822e-01,3.159194358254988066e-01,1.133929307844349088e+00,5.522933806296392856e-01,5.349136164744361377e-01,6.591262103980769504e-01,2.171531591393313754e+00,1.589736700465070651e+00,2.692404103171946783e+00,8.791672744454990251e-01,3.240385864530920812e-01,-7.372817098673428715e-01,-2.107750079251022660e-02,-4.721418878163543553e-01,-1.127799132006855665e+00,-1.486369635877103690e+00,4.305808385642572733e-01,1.930542370589546586e+00,-2.006419209250763225e-01,-6.328593780797479029e-01,1.721713848852221562e-01,4.566088139050318295e-01,-7.140469804294233835e-01,-1.691722308834992528e-01,-9.956053222043463879e-01,1.032095804253074567e+00,-8.552659737757219993e-01,3.783070796710745476e-02,3.657307626622716655e-03,7.244660037937625807e-01,-2.516332882142365279e-01,7.612169120849852089e-01,1.134968297034164131e+00,1.468007214797533155e+00,9.714492619709846899e-01,-3.473546825703339724e-01,6.953988226821872232e-01,2.045510710715518488e-01,4.215244442477573683e-01,-4.827866439370376295e-01,-1.268888230840072850e+00,-1.388531448195446716e+00,-1.165270338642312442e+00,2.471929387974252657e-01,7.574201275514812204e-02,-8.262654663988492354e-01,-9.121235801769338528e-03,-3.935374562238345142e-01,-4.630727751150297555e-01,-4.980925657905278525e-01,1.115979355220764191e+00,2.088249551495477085e+00,-2.011463889237750657e-01,7.478599427347111250e-01,-1.268414869617059182e+00,5.781526160877820120e-01,-1.442846556113981160e+00,5.744170700729759466e-02,4.220494152862877546e-01,-2.400681608011450141e-01,1.266431232595161660e+00,-1.080010592681575343e-02,1.381909608540835555e+00,8.465022505303415601e-01,-3.030624904055396196e-01,2.096868824277463350e+00,-1.574799680400815527e+00,-9.549936669590557425e-01,1.100489790682317226e+00,-7.890128014333636086e-01,4.744606746087629001e-01,5.139737690782638646e-01,7.775100414801148219e-01,-1.373728363152930010e+00,1.244816877803745642e-01,6.279276754425929807e-01,5.623914917114419820e-01,7.883624868574349298e-01,-3.662626707192949693e-01,-6.932603186078275526e-01,1.438840469799511412e+00,-8.014710538094091952e-01,-2.865851552916491851e-01,-1.709541738373692832e+00,1.675403738181434177e+00,1.152266640731220537e+00,-1.110644104815333044e+00,-3.098022914026304919e-01,8.316568652144905593e-01,1.998077575958145502e+00,2.193903467784887873e-01,1.689151209428342293e+00,-9.357570067822732485e-01,-1.395182176262829365e+00,3.260149605274781370e-01,4.082210486530352123e-02,-5.271950756896071066e-01,-4.353379557772342756e-01,-6.223038965426631597e-01,1.247884112068012419e+00,-6.136378157996085214e-01,-3.077689907426420582e-02,3.250480530345904451e-01,-6.812305430747642720e-01,-1.412048853356137890e-01,9.567143225987198019e-01,1.439277795548795869e+00,-5.162825693467913979e-01,3.689176619473795160e-01,1.699652064858901079e+00,5.426809901280419401e-01,-8.925659461744317458e-01,-4.767373917523219928e-01,2.244995133820574917e+00,-6.110035142884074899e-01,1.082598346209371787e+00,6.000228917815626506e-01,1.235253211343698143e-02,1.826934883232393503e+00,1.869702774875443563e+00,3.313812933133624128e-01,-6.570358109967823490e-02,1.530686733636548613e+00,-2.667113422031559988e+00,1.281100573546438248e+00,-8.928177199951323750e-01,3.866784065295894024e-01,-5.802601613613478371e-01,-1.493536759911056944e+00,9.849551075430214020e-01,-1.545141187693248153e+00,1.160136963491279927e+00,-2.362057296156563790e+00,1.630245374206917397e+00,6.519245543469932569e-01,1.917366168545357186e-01,-5.844821361520132763e-01,-1.817812754631045635e+00,-7.437179593195114569e-01,-8.505457273733038059e-01,-2.228921983976996368e-01,-2.420616502377477552e-01,3.864876755277004139e-01,5.901665093690496855e-01,3.271898931483707695e-01,1.449979058024081002e+00,-2.761296010771448373e+00,-1.071693752945000577e+00,1.136239263434999369e+00,-9.338056137420884806e-01,2.052635511953263270e-01,-1.849669821562949901e+00,-4.203260472848433654e-02,-6.291764303833564664e-01,-1.755874658249308162e-01,-4.924884803640744990e-01,-1.883366357890031262e+00,1.163550778330744828e+00,-2.365310743542003991e-01,2.228069331615014637e+00,1.342808576141697463e-01,-1.676569516723555919e+00,4.263692561167646833e-01,4.798052678861092213e-02,2.023169306213684973e-02,3.173400445746587528e-01,9.406932409029931108e-01,-9.316210661343256039e-01,3.863001584310745695e-01,-7.352523894666181947e-01,6.023880021162389964e-01,-4.789843973370261909e-01,3.229856075427649520e-01,-1.298353528213149977e+00,1.031651291591717756e+00,1.269068670903996887e+00,-3.606666932888624721e-01,-1.148021874620487104e+00,9.091656439635036335e-01,-6.555969130944400147e-01,6.659618264165249046e-01,1.612624995383862003e-01,2.087711956874082897e-01,1.021215696395058742e-01,2.308416625100195851e-01,-4.185077066368652621e-01,-1.197361794323425599e+00,-6.402227155031926797e-02,-4.233608241197874267e-01,1.297555486849312767e-01,2.361643705373008828e+00,4.685008829330227775e-01,3.958387237007265913e-01,7.261045778805605422e-02,-5.323961161270067688e-01,-6.247207733693675991e-01,2.326574476664481361e-01,-3.914409873193077649e-01,5.556507187210932841e-01,3.312662368667376733e-01,-1.334941950990818915e-01,4.106762943140659372e-01,7.275695471144375537e-01,-1.529621206399922606e-01,-7.172460949424577237e-01,2.131956486078933732e+00,-8.510359504761731975e-01,-1.167119682981273554e+00,-3.005290407623094628e-01,-9.291459818431295759e-01,-1.536911627864657959e+00,-5.059597242708664400e-01,-1.123867289239692147e+00,-3.776979074324910979e-01,-4.526018023711333438e-01,4.429870144200556692e-01,9.710506250423602825e-01,-9.921614464213783791e-01,1.316787085737305629e+00,-2.794486161632051768e+00,3.663737799001489520e-02,1.538855469610657778e+00,-7.404723555276662150e-01,9.045624349080255699e-02,7.550651969016177745e-01,-3.975985580954379262e-01,1.417621419665072269e+00,-1.084760270043538588e+00,7.775859871914918564e-01,6.727318341227244147e-01,4.652639171025211295e-01,2.955551911516772490e-02,-2.487141213287199226e-01,-6.727071304202255630e-01,2.434189238633970853e-01,9.406775949422525596e-01,-1.079409009158346811e+00,2.640255073258647722e-01,1.871037612043534581e+00,-1.241479658901989414e+00,-1.799119364945434452e+00,-1.303450606222944952e+00,9.721018315580655100e-01,-1.156299686016482697e+00,-1.136436745188944109e+00,2.838897743715457778e-01,-6.959651552491711302e-01,9.598476052829973959e-01,3.832472516460787015e-01,-3.030963388930370428e+00,4.186924279441170405e-01,1.302538414908309683e+00,-1.401622055935832112e+00,-1.862423366363255672e+00,1.156344388951286550e+00,-3.866645388836685848e-01,-7.072895762699842326e-01,8.161991365385199426e-01,-6.892424739227883679e-01,6.608579200601129022e-01,3.727994169506085864e-01,5.420087744049572470e-02,4.513037774738749008e-01,-1.835112843769129753e+00,2.090999177722219771e-01,-3.300116768070174844e-01,2.881617232204231049e-01,-8.599930295962208288e-03,1.030523357492781067e-01,-7.797546637827067473e-01,-1.460738843422885624e+00,-8.618911055850174696e-01,-9.607961190396578921e-01,8.796403375318754270e-01,4.046120699139394983e-01,1.341019092668654933e+00,-1.227077263165007315e-01,8.508467327478111963e-01,2.102835900077852038e+00,-4.564042962531029146e-01,-2.020591496459274994e-01,6.301943758129973094e-01,2.161469923241731983e-01,-1.938746259204614242e-01,-9.042062828630923477e-01,1.180829929185004179e+00,-7.252353865620431161e-01,7.131396606026221274e-01,2.194172140244764702e+00,5.262250828636491073e-01,7.150213449549059908e-01,-9.108997616854433987e-01,2.109453592799423183e-01,-1.727130036861049378e+00,-8.847675039648756901e-01,-2.981476382297153505e-01,1.428936304104087895e+00,3.875785025904475156e-01,-1.062104968873984312e+00,1.334749644640728539e+00,-2.538175740530391328e-02,4.931847549055335955e-01,2.252478253920248363e+00,-1.126722662540000641e+00,7.967760642357603063e-01,1.872392642264872897e-01,-7.005565120632180065e-01,1.021635179182101227e+00,-1.465480214643707013e-03,2.564269630451150930e-02,-2.028975470107863721e+00,8.995521188387334277e-01,-5.422510685540666842e-01,6.648909596432227564e-01,-1.067280844866044021e+00,-2.235757727107702819e-01,3.636236619424930150e-01,2.566644035896024079e+00,3.212950632709664633e-01,-8.682203202122148467e-01,1.591598579263670543e-01,-8.584630640597288309e-01,1.551813217688917446e+00,8.014915466909647845e-01,-9.496945639747819135e-01,-7.987552681451369763e-01,-9.729530025094775825e-01,6.941076946820895488e-01,-3.719649201965989360e-01,9.458982187389605722e-02,-7.909073816539294866e-01,-3.741479243295139367e-01,-3.709996756018147379e-01,-5.065934606565059006e-01,4.167181769383834222e-01,-1.210010467295751679e+00,1.156438425794764496e-01,1.789719584398619556e+00,1.244312195296672474e+00,9.866541490518124236e-02,1.038410994611344451e+00,-6.303950188999120074e-01,1.131445391952156765e+00,-1.798130823592485772e+00,-5.362245247682378979e-02,-5.099227157930547039e-01,-8.378540432989491915e-01,4.099201517966315489e-01,2.467116723617286123e-01,8.489213341916520550e-01,-7.190583523123048049e-02,-1.105011944837803073e+00,1.094234237182623692e+00,-1.124626943379221193e-02,-6.090417692194363131e-01,1.437206397820496584e-01,-4.557082137350335072e-02,-1.364125984559801941e+00,-1.139839929947185304e+00,1.440517206355163560e-01,1.625774039797887927e+00,9.147478339508547940e-01,3.162875291657857302e-01,-1.338006424211753531e+00,1.138140003073591089e+00,1.742728726074963819e-01,-8.922578330112026501e-01,7.498482289772970821e-01,7.519696693860433495e-04,1.726385303292714279e-01,1.108739686344774489e+00,-2.167663080870398495e+00,-3.998387582545170349e-01,8.069644810279300584e-01,-1.309933125144698618e+00,2.491727020780573065e-01,1.756777468817375676e-01,2.581500999018079501e+00,2.604114096335858886e-01,-2.542028416624384946e+00,5.049064308254281874e-01,-3.887187691645906384e-01,2.522215647550909434e+00,-3.095859567132617785e-01,-3.954956944861259815e-01,9.624887753395310330e-01,8.222696881515665357e-01,1.426886733172046506e+00,5.269878928044339217e-01,-5.976003774376896782e-01,2.976242967511870674e-01,2.031242486904919264e+00,-1.413619876082248539e-01,8.986483931459925412e-01,-2.179140261354702290e-01,1.022515765353409378e+00,2.949688390127209181e-01,-4.193977087679096744e-02,-6.185376782376268423e-01,-1.825909523653340027e+00,2.127841523640869426e+00,1.153198744468455050e+00,-7.682969848373520649e-02,2.391037255918321558e-01,9.979038449829606972e-01,3.182304465540348182e-01,-1.056755276149069500e+00,-1.898737375637065683e-01,1.450795272718176099e+00,9.744467688100917346e-01,-1.323294959483422850e-01,1.412591582300429804e-01,1.096026239572545358e-01
-2.493878120819668087e+00,-1.086646957296819149e+00,-2.807694209781094741e-01,-2.302716704054857288e+00,1.293093875724074859e+00,1.282989098905708003e+00,-4.924316572696224581e-02,9.181037808460977834e-01,6.472548346288632404e-01,-1.574373113180943307e+00,-1.017755750038953577e+00,-2.099234533291609139e+00,6.347855351151511505e-02,1.264124444675607695e+00,-1.836154408081812184e+00,-7.297354534102809542e-02,-2.170809432220392743e-01,-1.321929673266194039e+00,-1.044341356821295586e+00,3.379563906361577330e-01,-4.337266713000959006e-01,-3.741707758217768243e-01,-5.936288887583478502e-01,-1.849146773266105548e+00,1.435374665697919827e+00,4.122819553215530397e-01,-5.697540825552157573e-01,-9.801487208700387921e-01,-8.113761246847706055e-01,4.795310140974867186e-01,1.349804510141412894e+00,-1.401493176452782929e+00,1.357128912352384975e-01,-1.592670179364803484e-01,8.830903727697790584e-02,3.372529704565739063e-03,-2.038788549639155345e+00,-9.052584206782732235e-02,-3.256447970128982794e-01,-1.857639404617746237e+00,1.566194601213015958e-01,-1.217424034489926754e+00,-3.523774472432121829e-01,-5.311869978887565624e-01,2.111792528164511573e+00,6.698950158410139633e-01,-9.349723730365714358e-01,6.978594516902958400e-01,7.263391873274663846e-01,1.530830460664967807e-01,9.654161266973775302e-01,-7.089423407373520725e-01,1.903632123937390563e+00,-8.233706538855594115e-01,-7.014705726598905455e-01,1.207794604919056880e+00,-1.820497245247723717e+00,4.853978508487681864e-01,-1.202433300615459277e+00,-1.171429261944534561e+00,4.410669750890625629e-01,2.940430670975945349e-01,1.769749062871054934e-01,9.031513880416147666e-01,1.556673586552464128e+00,1.911644572880417892e+00,-4.458185320166199034e-02,1.381316150744375415e+00,1.158353990385046606e+00,5.486027315261458037e-01,1.346158427735018481e+00,-1.196136921310268830e+00,1.170159934606983310e+00,9.425031833995256569e-01,-3.868633788169601462e-01,9.213048493324664523e-02,-4.796582816533980220e-01,4.484670935939533143e-01,1.671026194326573400e+00,-1.582315715314280391e+00,-1.172641909447657005e-01,4.805522563317859430e-01,1.067321974259926698e+00,1.062537922020283521e+00,-3.740530001559811552e-02,5.544535422587789641e-01,1.797017277551065995e+00,-4.443744545062980889e-01,-2.346652682696053205e-01,-1.333029300277370766e+00,-7.952270574933129055e-01,-1.267286743638169622e+00,8.972111047686945895e-01,1.116195384146559499e+00,3.629323925873489398e-01,2.022747698514308023e+00,-9.059872463858015257e-01,9.774555840789469485e-01,8.180925087329151690e-01,-1.635641019093074522e-02,-5.684659358082216896e-01,2.645504390525039162e-01,-4.713765666749815675e-01,-1.483323138500557858e+00,-2.466629932032037509e+00,9.073061555244990029e-01,-2.607658948531828891e+00,-6.594450677246777026e-01,3.687435846587572841e-01,1.890625740304190394e+00,7.864947599919577814e-02,-1.422326974102726238e+00,8.667943995329500106e-01,6.943745553848466034e-01,4.558192379745290013e-01,-8.052231941281814409e-01,4.305086635342952883e-01,6.567937711341841345e-01,-2.857555249170120604e-01,2.053471398798480674e-01,-1.459890256082063908e+00,1.268973179546218688e+00,1.179363671968696403e+00,9.708354410555561920e-01,-1.261632370461631014e+00,1.196679889090341176e+00,-2.012871992221191952e+00,5.439774573280464764e-01,2.766510181129229196e-01,-1.992164017010425114e+00,-1.921951146792669485e-01,1.448702314043957662e+00,1.300632366028146691e+00,8.402473940481954839e-01,3.027459611857812871e-01,-1.255014310371897757e-01,-1.056628453131730039e+00,9.287284496931769162e-02,1.272103263766064085e+00,-1.492469208405120984e+00,-7.795327273745737695e-02,-1.226523945161866802e+00,8.464045466346097335e-01,-3.061503415539957307e-01,-7.256423140796782745e-01,-1.912234683624855380e+00,-1.480031349024238496e+00,-4.262937244583149821e-01,1.136512108585729930e+00,-4.860430582926896226e-01,1.677659050398279561e+00,3.400270658742302055e-01,7.154859889978006926e-01,-6.720869796333873714e-01,-4.061144352746871022e-01,-4.696216206193309928e-01,9.735533521536792190e-01,1.077300254942399116e+00,-2.251754290424571869e-01,-4.797319299389852798e-01,2.731024288596445859e-01,-1.276518277932149115e+00,-6.158784880680501228e-01,1.805171192790638868e+00,-5.771231340285044586e-01,-6.463829500815799767e-01,6.579428598382658366e-01,-1.250447276762852944e+00,-7.975342840736196481e-02,6.735947921046430142e-01,1.502524863758218088e-01,8.991678998350480789e-01,2.037062337553236235e-01,4.507909014409580695e-01,-6.927527365679628790e-01,-1.940728436301905058e+00,-5.390843169861574413e-01,-4.048702688583781795e-01,6.297567637805596696e-01,7.917243805634460729e-01,8.712986902773658393e-01,8.558883590800986374e-01,5.023942864985257994e-01,-1.839492273902574027e-01,-1.184820976544568971e+00,1.072789067082461134e+00,1.630711795023181532e+00,5.536537615211303276e-01,2.630711231527068650e-01,-7.113004384790496681e-01,2.260609915332744413e-01,-2.597208407926144602e+00,-2.896033519571183490e+00,6.886349477136308184e-02,-3.631135710025778507e-01,1.147989210548388206e+00,1.735043713738934290e+00,-4.103308777311706068e-01,7.190125194479873860e-01,2.125731096828544331e+00,4.608449569416008806e-01,-8.198086067504479768e-01,7.538866726747880387e-01,1.000540759572899230e+00,3.206425879994520001e-01,2.096256740071287705e+00,1.275274329831079800e+00,1.074951734914382229e+00,-6.821302895245927589e-01,-4.683514401902784674e-01,9.644738836645457836e-01,9.491293108090088915e-02,1.122154289764779822e+00,-2.323971042652323016e-01,-1.667792394106980325e+00,-5.337708603810200625e-01,1.707010167582671212e+00,1.181480279738405637e+00,1.456110426318430462e-01,1.099766020084612439e+00,-9.439978771455861395e-01,-5.168196211373841109e-01,-4.711708669662512672e-01,-1.936800243271743049e+00,2.976750574940467686e-01,5.645262742542523915e-01,1.189939310502500236e+00,-2.384533300093377543e-03,-1.213039588111381573e+00,1.737469410582582086e+00,-8.717584892086241988e-01,1.508825454084032680e+00,6.934693425817513024e-01,4.560412041551681894e-01,-1.861799169033704793e+00,6.256917056681732259e-01,8.073451550686344680e-02,2.265776307426368597e+00,3.688675572603402619e-01,-2.964633400704727584e-01,8.963188913433004501e-01,-1.578331329733302923e-01,5.668909505207243571e-01,-2.289024385936130890e-01,-7.634118446416313652e-01,3.009725025908118301e+00,-8.446129313108847736e-01,1.358608459213023867e+00,1.596813438608868596e+00,-1.135224790366735848e+00,-1.737428495448482879e+00,3.262464212565066579e-01,-7.167446608295594546e-01,1.238056680670178489e+00,7.001242825444644602e-01,1.494824425315758543e+00,-4.092942620731716136e-02,-5.834841293848215260e-01,-1.199356439303818522e+00,-3.230034970339628608e-01,-6.733547125039037740e-01,5.719274909470214441e-01,7.369440694476288023e-01,1.615226019766001553e+00,1.565951371952579718e-01,-1.525517273914291705e+00,-1.644706032629713155e+00,2.714768853376690494e+00,7.055856826994741371e-02,9.126127794590113140e-01,-2.341966032982314427e-01,-4.118167214016829614e-01,-2.714265967681886993e-01,-1.872627503550243488e-01,-1.276606747710841594e+00,1.820546739182324680e+00,-1.461364549083349562e+00,-1.598310597568129765e+00,-4.666502759244172543e-02,8.420692598153662889e-01,-3.876399152838790330e-01,1.362799394612994042e-01,9.632482703626410458e-01,6.030266397205549245e-01,9.712053373335945983e-01,4.538420312066388518e-01,1.311321546057414578e+00,2.759438878212898127e-01,-1.432820217974026256e-01,7.153667487138601899e-01,4.463842148327434867e-01,-5.273622072903760144e-02,2.878566210356147681e-01,-2.070084215018079377e+00,1.083955343393792292e+00,2.334552057622201471e-01,8.791612565249474764e-01,-2.287545336368283222e-01,7.155541704035589534e-01,9.480960967891994828e-01,2.130357017161501609e+00,-8.940970571652976373e-01,8.798592356995059705e-01,-8.247795876861817310e-02,7.388616387165627408e-01,-2.213011620910415589e-01,1.262652527748789000e+00,2.207019181808634323e-01,-1.405985217737792115e-01,8.379301305011856993e-01,5.648911930241767854e-01,2.542903596368772598e-02,1.933664820279471730e+00,1.052219686456603798e+00,-1.149407573106708158e+00,9.041897982455535665e-01,9.776846421911157270e-01,4.829782510496291037e-01,7.124650148880984357e-01,1.446638195627632184e+00,1.069299799854632749e+00,-4.375823071137406595e-02,3.891570612538818308e-01,2.559596860411389674e+00,6.225125709336281066e-01,-1.877558034014080057e+00,1.488629198103180729e+00,8.670324666871366270e-01,-3.986983887820734207e-01,-2.633962353982965271e-02,-2.188482258749196718e-01,-2.411335606293345535e-01,5.290857117505626261e-01,1.535878777295779374e+00,-2.848974359166465131e-01,1.734255926927490199e+00,1.333877942126879546e-01,-2.534859066834013408e+00,9.556945937535370472e-01,-1.293830079298825764e+00,4.936421839680344981e-01,4.805704030169016816e-01,-6.949958470333638116e-01,3.881772069596096109e-01,1.151619014845522981e+00,3.718211318087026318e-01,2.073823308512990238e+00,1.750974632361322891e+00,-3.712230260189390840e-01,1.805011263913609554e-01,-3.481015798611757917e-01,1.647841342163433476e+00,8.111526978568811552e-01,4.251845336748479309e-01,-1.866574294681450308e+00,5.138918037780919601e-01,2.176225715710905506e-01,-5.583153704322083577e-01,3.845154207247732936e-01,5.627977783446967697e-02,1.196303676105807456e+00,-1.190975003104643326e+00,-7.482037177687405061e-01,-1.144642555994521138e-01,3.764508631692677354e-01,6.089913410212415279e-01,-9.938473817627453410e-01,-8.521451206573043002e-01,-1.058432252820933117e+00,-1.450672753812669136e+00,-6.341481591884475799e-01,3.457130477036054472e-01,-2.906307125163356542e-01,1.180456165801592627e+00,1.475002160634269165e-02,-1.098164491560683492e-01,5.308837681613061132e-01,-1.906514923695343533e-01,1.346466185434504803e+00,7.789793620340332847e-01,4.866937430637247042e-01,6.720213731661144330e-01,8.903852426454593461e-02,-8.762719400840268680e-01,8.629968676877837197e-01,-9.793368886382794458e-02,4.973260167218752636e-01,2.186077215308682431e-01,-5.071675181037332836e-01,2.026859955177719108e+00,1.249699384164412619e+00,2.055862829607322528e-01,-4.017104376848301128e-01,2.930509277726087158e-01,-3.651645586995802550e-01,-1.110532543722343224e+00,-4.178055008435296869e-01,1.134194108559374303e+00,-5.348260368747155269e-01,1.162367827963910916e+00,1.843785487666554923e-01,-8.425888306859709020e-01,-4.614089136296641858e-01,8.860691120953247957e-01,5.032456335543271653e-01,1.484868568266185518e+00,-9.783745121392362076e-01,-3.256413891594648891e-01,-2.072883337280159999e-01,1.174936562534968587e+00,-1.262870251583913528e-01,1.856432080610518565e+00,9.210479191448739389e-01,9.399104821411562449e-01,7.065432240421500865e-01,9.833134758574053613e-01,2.675773936682881646e-02,-1.239449950197601735e+00,-2.227321481225582378e+00,-6.350692618851322413e-01,1.397921201533414592e+00,6.409237262071982855e-01,1.099223662400542700e+00,-9.539451889510138782e-01,6.752647625090962835e-01,1.462147604881971930e+00,-7.762294397158929771e-01,7.893871287873776010e-01,-1.672935039565217163e+00,7.116403111268636561e-01,1.014373696634345068e+00,5.597850034205775760e-01,-1.011885910589944565e-01,-1.209818903439897175e+00,1.242842047604197697e+00,-5.127560105443058625e-01,4.297380894182314393e-01,-5.777184296483185433e-01,-1.985280614219621542e+00,3.553103293148605069e-01,-4.445924539286748023e-01,-2.695834670879446726e-01,-3.384916597098218682e-01,8.982160005481394371e-01,-1.292584114648313021e+00,1.196505634650744998e+00,-5.624195398047749928e-01,-9.044437065387874730e-01,8.745441651279276529e-01,-1.172901929245154573e+00,-1.706219367474616888e+00,-3.062532711439704403e-01,-5.275802795571438164e-01,-5.324560842508700986e-01,-6.963090941105918308e-01,-6.230030763966859508e-01,-8.932294814679503370e-02,-2.424991039540709201e-02,1.415769327405008493e+00,2.690259197109520772e-01,1.517688903791324373e+00,-1.492983274524136039e+00,1.773613146318350486e-01,1.005853654072772052e+00,1.007952138074979853e+00,-4.678107637763757043e-01,-7.467224552757675271e-01,-7.366299646869594042e-01,-1.134949004923788141e-01,1.284019127635151802e+00,5.190202631405851363e-01,5.380327512477870444e-01,6.375609955522316963e-02,7.104063720905805512e-01,-1.948010969475021115e-01,2.053519690444258194e-01,-3.388623071046151236e-01,2.871252276408499116e-01,-8.874562687422828111e-02,-9.139719157644827785e-01,-7.845696789843492613e-01,6.887641457311156623e-01,-4.593762151070607813e-01,1.994551098897575647e-01,-1.369789139040922477e+00,-5.007994831900591803e-01,-2.609485648860667140e-01,2.741904356196985582e+00,4.731300344012878689e-01,2.205215264889605731e+00,1.800974601681055942e+00,1.034264720221869771e+00,-1.732329651587330432e-01,3.855963591206551522e-01,2.819844810492889930e+00,-3.874248515632167100e-01,-5.437285750644106352e-01,3.565407271248582366e-01,6.567002463398794454e-01,7.040504580977769988e-01,7.486793531763202836e-01,-3.056866022185442122e-01,3.362101301327736214e-01,-2.339052171017794168e-01,9.895851765227012820e-01,5.134060870898978779e-01,1.919965892415518738e+00,-1.619124655282158654e-01,2.402956046760396092e-01,-5.971777979088603860e-01,-3.141130555002116798e-01,1.342768223654353887e+00,1.133947739274087235e-01,-1.207208577597257554e-01,-1.350759064119260611e+00,2.794704731055051017e-01,-3.693705652861332678e-01,-1.920544761250295718e-01,7.290100181912964050e-01,-3.256342127704720535e-01,7.168720034273250441e-01,-1.077015440070413721e+00,6.694986139243445100e-01,1.268483144029794119e+00,3.332606240987292523e-01,-1.427706921415487773e-01,-4.729865735014808226e-01,4.462253481601167748e-01,-1.630384327303638026e+00,-1.118528285743072143e-01,1.212872116205257478e-01,7.867208496624926717e-01,-2.163241999643058744e+00,-1.590754624131737738e-01,9.024590649044798851e-02,6.324709892989660576e-01,5.202192295944866318e-01,-1.436112872677185459e+00,1.898423332577931610e+00,1.367639684408109346e+00,-1.200775609585402526e+00,-1.275045540734756067e+00,2.566588089167169684e-02,5.079335763665928649e-01,3.926045196660247205e-01,3.391790655039431113e-02,-1.298129674253221399e-01,5.651600849353647371e-01,4.205872117434479862e-01,4.463845815409436812e-02,-2.239081441167486142e-01,1.090406040584563030e+00,1.401549310311008156e+00,3.585238921993952332e-01,7.309598703370028261e-01,-1.162180850805524468e+00,3.918763891521306886e-01,9.954684037276299025e-01,-1.640695026591565853e+00,3.605476346119125264e-01,1.778163724462291206e+00,-9.918263706869778762e-01,4.600494982570837998e-02,-1.364987038097302152e+00,4.209737614957111407e-01,-3.720799145908900707e-01,5.811914333299307289e-01,-9.915132451729131713e-01,-5.051669306326869169e-01,3.885416128908506517e-01,-6.668233642569371122e-01,-1.429069963455199099e+00,-1.324470241446702667e+00,-1.122463795546998488e+00,-5.054097691150417626e-01,5.422208899510551072e-01,1.082308990458473730e+00,-5.631746424076321533e-01,1.349791986048009429e+00,-2.399873841522744300e+00,-2.624771942761177090e-01,1.184655682771282414e+00,-1.409486238535101466e+00,-3.477867317200634273e-02,-1.221790590407173305e+00,4.097741085582758958e-01,7.002699692189223724e-01,7.905560106690472377e-01,-8.199991068860368326e-02,-1.550373813828841429e-01,2.518735030587340717e-01,6.823406076682712040e-01,3.294062513813973969e-01,-8.654010544397756910e-02,-3.259983704343695776e-01,1.723166319788675682e-01,1.962669906195103064e-01,5.530145382611959537e-01,1.609600545800286220e+00,7.755776197429711249e-01,5.579151491778662209e-01,-9.414286522270582935e-01,1.754676388612067095e+00,6.890365228425627819e-01,2.270423562579141130e+00,9.511971055242141038e-01,-4.634556233698212679e-01,-2.111654463608379773e-01,-9.989129733733067562e-01,1.263922011902467890e+00,-9.320155918142994933e-01,-1.543826000934470200e+00,-5.412145062160588216e-01,-6.605539218185932926e-01,-1.527992710820256672e+00,6.757161603986810983e-02,-6.294395562427116397e-01,4.760064471816614212e-02,-6.340003590182525794e-01,-1.808648804133254240e+00,7.397762795828167759e-01,7.136067426662967561e-02,9.293956819023894145e-01,-1.472536868495959661e+00,1.115405878652520055e+00,1.188520190481931360e+00,-9.979034817250181932e-01,1.499496194539250205e+00,1.702854470260194653e+00,-4.123967985596312391e-01,4.665600984433633802e-01,-7.320705286078468266e-01,-6.283984338707995221e-01,-9.756703291898159991e-01,-3.693527917073522460e-01,5.463476065569612405e-01,-1.361269794673607869e+00,8.087241482035509854e-01,-5.931838864422527280e-01,1.738335773814383700e-01,-1.415473898358770466e+00,2.113249937440292658e+00,-1.466105562722669342e+00,-9.357309108340441939e-02,1.697518586325478696e+00,8.232994090274761145e-01,6.457892358263754851e-01,-3.653392327090542180e-01,-6.591454259810173300e-01,-5.067969822417555115e-01,-2.214058296828284034e-01,-7.262049326924650827e-02,-1.676909695725986138e+00,-2.664159009595766237e-01,1.583952051690717955e+00,-2.540464680738895975e+00,-2.350083007145929770e+00,1.020209791922065179e+00,1.908974716628326074e-01,-4.680531356163510348e-01,1.064884914342316913e+00,1.630408424502693132e-01,-7.308361654226561699e-01,-5.620285076745049624e-01,-5.440684292234443387e-01,-1.979810041070422466e+00,-3.548268343506603140e-01,-1.421837159691469621e+00,1.156565156287398866e+00,-2.982716562049501086e-01,-1.729956398227276537e+00,-1.219574099928865341e+00,7.269086112631958363e-01,1.102554358619635799e+00,9.594525221863615672e-01,-6.727771579971121296e-01,-1.110851435255879593e+00,2.610754117568427013e+00,3.875008378452311497e-01,1.162497886339183717e+00,4.041834901953023085e-02,-5.581949646689118305e-01,1.853499296695876986e+00,-7.505750959627729424e-01,2.075701167615544129e+00,1.082373919677165203e-01,3.714883079203985528e-01,-4.127047645854004521e-01,-1.241188436486103441e+00,-7.022277522577307085e-01,1.673241837252288089e-01,-9.503554029795209246e-01,-1.348167403727068336e+00,-2.002213170041214685e+00,-7.731766471634292648e-01,3.294065838885487651e-01,8.756087303738113725e-01,-6.154871436450238820e-01,-6.110739446787701867e-01,-1.083204959461439243e+00,2.748102732536264470e-02,-2.938606030642400557e-01,4.735781344928908787e-01,-1.811046340490829687e+00,-1.019970396304422516e-01,1.032962019852025293e+00,1.458825198274485979e-01,-2.501244511577431218e-01,-1.745030389702423523e+00,9.429863845807069378e-01,4.221453208722636408e-02,2.581218776739428733e-02,-1.090022295669366592e+00,8.415432043855775035e-01,-1.368562510412266731e-01,1.791013919990678271e+00,-7.471258201330623072e-02,-4.148465500477981904e-01,2.012417002415376022e+00,-1.164607207389865146e-01,-3.429357479735458542e-02,-1.980209846838626664e+00,1.510692848232482732e-01,1.774510354152385228e+00,-1.130106821373468184e+00,2.146528748240167928e-01,1.697968392054395759e+00,-1.314952915906105080e+00,-7.315721128410281882e-01,-4.654805762774796296e-01,4.248873203704823243e-01,-7.026264056934045099e-01,8.986994923032753935e-01,9.790961393970503135e-01,1.918678271111891598e-01,-3.343939610605342061e-01,-6.409428401607106807e-01,4.717341794392531096e-01,2.722388090683855566e+00,-3.947693428127135862e-01,-3.986879986529758835e-01,1.313397435156046456e+00,8.813459309999461810e-01,-9.814546045117717998e-01,-5.816548898025193370e-01,-1.374328612389688731e+00,-1.605350075866098999e-02,1.109408219373247073e+00,-3.358288655444232468e-02,1.369235214160587466e+00,-5.118608190047351236e-01,-7.925603609032795538e-02,-1.183039414350553820e+00,7.399114394598722555e-01,8.083831114398913886e-01,1.173273585440791855e+00,1.233998677847362613e+00,-1.566935115208291762e+00,7.365618565851532462e-02,9.157898575325011947e-01,-1.182167123545828202e+00,-6.332936386786263139e-01,-5.065736762608091803e-01,7.937470102811495787e-01,7.368107863468494889e-01,2.135762671033993865e+00,5.960319284676086626e-01,2.035293278122920768e-01,1.514357151707285132e-01,8.245734699634762466e-01,-6.448152738261735406e-01,2.609877150484948838e-01,-3.028638023025457815e-01,1.283884315409599131e+00,4.255337589979260038e-01,2.074725058580419446e-01,-3.311754422535767017e-01,-1.047801643051445408e+00,4.096397555200238516e-01,-3.926853952532145808e-02,8.432384712814246230e-02,1.106187436657865897e+00,1.953951031152086015e+00,-1.013422756565468319e+00
